微博	-0.00053622725	0.00023643136	0.0051033497	0.009009273	-0.0093029495	-0.007116809	0.0064588725	0.008972988	-0.005015428	-0.0037633716	0.0073805046	-0.0015334714	-0.0045366134	0.006554052	-0.0048601604	-0.0018160177	0.0028765798	0.0009918738	-0.008285215	-0.009448818	0.007311766	0.005070262	0.0067576934	0.00076286553	0.0063508903	-0.0034053659	-0.0009464014	0.0057685734	-0.0075216377	-0.0039361035	-0.007511582	-0.00093004224	0.009538119	-0.007319167	-0.0023337686	-0.0019377411	0.008077437	-0.005930896	4.516244e-05	-0.004753734	-0.009603551	0.005007293	-0.008759585	-0.0043918253	-3.5099984e-05	-0.00029618145	-0.00766124	0.009614743	0.004982058	0.009233143	-0.008157917	0.004495798	-0.004137076	0.0008245361	0.00849862	-0.0044621765	0.0045175003	-0.00678696	-0.0035484887	0.009398508	-0.0015776526	0.00032137157	-0.00414063	-0.007682688	-0.0015080082	0.0024697948	-0.00088802696	0.0055336617	-0.002742977	0.0022600652	0.0054557943	0.008345953	-0.0014537406	-0.009208143	0.0043705525	0.00057178497	0.007441908	-0.00081328274	-0.0026384138	-0.008753009	-0.0008565569	0.002826563	0.005401429	0.0070526563	-0.0057031214	0.0018588197	0.0060888636	-0.004798051	-0.0031072604	0.0067976294	0.0016314756	0.00018991709	0.0034736372	0.00021777749	0.009618826	0.005060604	-0.00891739	-0.0070415605	0.0009014559	0.006392534
按钮	-0.0086196875	0.003665738	0.0051898835	0.0057419385	0.0074669183	-0.0061676754	0.0011056137	0.0060472824	-0.0028400505	-0.0061735227	-0.000410223	-0.0083689485	-0.0056000124	0.007104539	0.0033525396	0.0072256695	0.0068002474	0.007530742	-0.0037891543	-0.00056180597	0.0023483764	-0.0045190323	0.008388732	-0.009858164	0.006764641	0.0029144168	-0.0049328315	0.0043981876	-0.0017395747	0.0067113843	0.00996485	-0.0043624435	-0.0005993378	-0.0056956373	0.0038508223	0.0027866268	0.0068910765	0.0061010956	0.009538497	0.009273417	0.007898068	-0.006989504	-0.009155865	-0.0003557527	-0.0030998408	0.007894317	0.005938574	-0.0015456629	0.0015109634	0.0017900408	0.007817571	-0.0095101865	-0.00020553112	0.0034691966	-0.0009389722	0.008381772	0.009010783	0.0065365066	-0.000711621	0.007710404	-0.008534335	0.0032071066	-0.004637997	-0.005088955	0.0035896183	0.0053703394	0.0077695143	-0.0057665063	0.007433361	0.0066254963	-0.0037098003	-0.008745641	0.0054374672	0.0065097557	-0.00078755023	-0.006709856	-0.0070859254	-0.0024970602	0.0051432536	-0.0036652375	-0.00937006	0.0038267397	0.004884479	-0.0064285635	0.0012085581	-0.002074877	2.4403334e-05	-0.009883509	0.0026920044	-0.0047501065	0.0010876465	-0.0015762246	0.002196673	-0.007881576	-0.002717184	0.0026631986	0.005346682	-0.0023915148	-0.009510094	0.004505879
微博加	9.456396e-05	0.0030773198	-0.006812645	-0.0013754654	0.007668581	0.0073464094	-0.0036732971	0.0026427018	-0.00831713	0.006205486	-0.0046373224	-0.0031641065	0.009311357	0.0008733857	0.007490703	-0.0060740625	0.005160507	0.009922823	-0.0084573915	-0.0051356913	-0.007064837	-0.0048626517	-0.0037785638	-0.008536199	0.007955606	-0.004843938	0.008423613	0.0052625705	-0.006550026	0.0039578713	0.0054701497	-0.007426536	-0.0074057197	-0.0024752307	-0.008625725	-0.0015815723	-0.00040343284	0.0032996845	0.0014418805	-0.00088142155	-0.005594058	0.0017303658	-0.0008973718	0.006793691	0.00397359	0.0045294715	0.0014343059	-0.0026998555	-0.0043668128	-0.0010320747	0.0014370275	-0.0026460087	-0.007073783	-0.007805307	-0.009121787	-0.0059351693	-0.0018474245	-0.0043238713	-0.0064606704	-0.0037173224	0.0042891586	-0.0037390434	0.008378175	0.0015339935	-0.0072423196	0.0094337985	0.0076312125	0.005493282	-0.0068488456	0.005822679	0.004009093	0.0051853694	0.0042559016	0.0019397545	-0.0031701624	0.008353845	0.00961218	0.003792603	-0.002836995	7.1275235e-06	0.0012188185	-0.008458325	-0.008223945	-0.00023101569	0.0012372875	-0.0057433806	-0.0047252737	-0.0073460746	0.008328616	0.00012129784	-0.0045093987	0.0057017053	0.009180015	-0.004099872	0.007964682	0.005375434	0.005879123	0.0005125904	0.008213084	-0.0070190406
广告	-0.008242678	0.009299355	-0.00019766092	-0.0019672764	0.0046036304	-0.004095316	0.0027431143	0.0069399667	0.006065426	-0.0075107943	0.00938235	0.0046718083	0.0039661205	-0.0062435055	0.00845998	-0.002150165	0.008825188	-0.0053620026	-0.008129419	0.006824559	0.0016711927	-0.002198509	0.009513601	0.009493855	-0.009774047	0.0025052286	0.0061566923	0.0038724565	0.0020227872	0.0004305017	0.00067363144	-0.0038206363	-0.0071402504	-0.0020888723	0.0039238976	0.008818683	0.00925915	-0.0059759365	-0.009402671	0.009764377	0.0034297847	0.005166117	0.006282345	-0.0028042626	0.0073227035	0.0028302716	0.0028710044	-0.00238037	-0.0031282497	-0.0023701417	0.0042764368	7.605791e-05	-0.009584279	-0.009665544	-0.006148194	-0.0001285696	0.001997416	0.0094319675	0.005584351	-0.0042906962	0.00027831673	0.0049643586	0.0076983096	-0.0011442233	0.0043234206	-0.0058143795	-0.00080419064	0.0081000505	-0.002360065	-0.009663455	0.0057792603	-0.0039298222	-0.0012228728	0.009980517	-0.0022563506	-0.0047570644	-0.0053293873	0.00698089	-0.005708872	0.002113663	-0.00525566	0.006120714	0.0043573068	0.002606355	-0.001491083	-0.0027460635	0.008992936	0.0052157748	-0.0021625196	-0.00947031	-0.007426052	-0.0010637414	-0.00079494715	-0.0025629092	0.0096827205	-0.00045852066	0.005873761	-0.0074475873	-0.0025060738	-0.0055498634
社区	-0.007139015	0.0012410306	-0.0071767163	-0.002244618	0.0037193035	0.005833124	0.0011981833	0.0021027315	-0.0041103913	0.0072253332	-0.0063070417	0.004647216	-0.008219973	0.002036468	-0.004977052	-0.004247688	-0.0031089843	0.0056552086	0.005798401	-0.004974649	0.0007733309	-0.008495778	0.0078098057	0.009257291	-0.0027423275	0.0008002233	0.0007466519	0.005477885	-0.008606079	0.00058445573	0.0068694223	0.0022315944	0.0011246764	-0.009322155	0.008482367	-0.0062641273	-0.0029923737	0.003493787	-0.0007726276	0.0014112913	0.0017819917	-0.0068288995	-0.009724812	0.009040585	0.0061980546	-0.0069129276	0.0034034825	0.00020606398	0.0047537456	-0.007119943	0.004026954	0.0043474343	0.009957369	-0.00447374	-0.0013892639	-0.0073173214	-0.009697829	-0.009080257	-0.0010227549	-0.00650329	0.004849728	-0.0061640264	0.0025191857	0.0007394409	-0.003392154	-0.0009792233	0.009979125	0.009145887	-0.0044618296	0.009083027	-0.005641763	0.005930922	-0.0030972182	0.0034317516	0.0030172265	0.006900461	-0.0023738837	0.008775037	0.007589428	-0.009547646	-0.008008209	-0.0076378966	0.0029232574	-0.0027947223	-0.0069295205	-0.008128264	0.00830918	0.0019904887	-0.009328017	-0.0047927164	0.0031367384	-0.004713206	0.005280843	-0.0042334413	0.002641796	-0.008045687	0.006209886	0.004818889	0.0007871926	0.0030134476
招生	-0.0087274825	0.0021301615	-0.0008735442	-0.009319088	-0.009428143	-0.001410718	0.0044324086	0.003704071	-0.006498693	-0.0068730675	-0.004999412	-0.0022868442	-0.0072502876	-0.009603318	-0.0027436293	-0.008362841	-0.006038876	-0.005670929	-0.0023441375	-0.0017069972	-0.008956999	-0.0007351994	0.008152506	0.0076904297	-0.007206116	-0.0036668312	0.003118552	-0.0095707225	0.0014764392	0.0065244664	0.0057464195	-0.008763062	-0.004517144	-0.008140161	4.5956374e-05	0.009263634	0.0059733056	0.005067308	0.0050610625	-0.0032429171	0.009552184	-0.0073564244	-0.0072703874	-0.002265389	-0.00077856064	-0.0032161034	-0.0005925858	0.007488823	-0.0006975186	-0.0016249407	0.0027443992	-0.008359101	0.007855804	0.008536104	-0.009584087	0.0024462664	0.009904971	-0.0076658037	-0.0069669187	-0.007736517	0.008395923	-0.0006813359	0.009144409	-0.008158221	0.0037430846	0.0026350426	0.0007427132	0.002327676	-0.007469094	-0.0093583735	0.0023545765	0.006148455	0.007985689	0.0057358947	-0.00077733636	0.008306164	-0.009336314	0.0034061326	0.00026675343	0.0038572443	0.0073857834	-0.006725167	0.0055844807	-0.009522225	-0.00080445886	-0.008688737	-0.005098673	0.0092892265	-0.0018582619	0.0029144264	0.009071279	0.008938133	-0.008208435	-0.0030123137	0.009886606	0.005104431	-0.0015880871	-0.0086920215	0.0029615164	-0.0066758976
提示	0.0081322715	-0.004457334	-0.0010683573	0.0010063648	-0.00019111396	0.0011481774	0.0061138608	-2.027154e-05	-0.0032459653	-0.0015107286	0.005897299	0.0015141022	-0.000724262	0.009333247	-0.0049212836	-0.00083840964	0.009175411	0.0067494274	0.001502856	-0.008882561	0.001148746	-0.0022882556	0.009368237	0.0012099278	0.0014900636	0.00240641	-0.0018360066	-0.004999634	0.0002324295	-0.0020141804	0.006600933	0.008940123	-0.0006747544	0.0029770148	-0.0061076544	0.0016993248	-0.0069262325	-0.008694027	-0.005900203	-0.008956475	0.007277595	-0.0057720314	0.008276352	-0.0072435453	0.003421675	0.009674999	-0.007785448	-0.009945057	-0.0043291464	-0.0026831306	-0.00027128935	-0.008831551	-0.008617558	0.0028002106	-0.008206407	-0.009069337	-0.0023404658	-0.008631808	-0.00705665	-0.008401151	-0.0003013289	-0.0045642983	0.0066271746	0.0015271604	-0.0033414757	0.006108972	-0.006013285	-0.0046561696	-0.007207509	-0.00433658	-0.00180933	0.006489643	-0.002770393	0.0049189674	0.0069044423	-0.0074637057	0.00456485	0.0061269784	-0.0029544747	0.006625022	0.0061258795	-0.006443485	-0.0067645516	0.0025389588	-0.0016238189	-0.006065128	0.009499209	-0.0051301466	-0.006554097	-0.000119885204	-0.002701428	0.0004444003	-0.0035374581	-0.0004193306	-0.00070861576	0.00082282064	0.008194817	-0.0057367072	-0.001659528	0.0055716075
新浪网	0.00816812	-0.0044430327	0.008985434	0.008253665	-0.004435222	0.0003031051	0.004274491	-0.00392632	-0.0055599655	-0.0065123225	-0.0006707382	-0.00029592158	0.004463085	-0.002474054	-0.00017260908	0.0024618758	0.004867599	-3.080845e-05	-0.0063394094	-0.009260807	2.665758e-05	0.0066618943	0.0014660227	-0.008966522	-0.007938605	0.0065519023	-0.0037856805	0.0062549924	-0.006681032	0.008479662	-0.0065163244	0.00328802	-0.0010569858	-0.006787528	-0.0032875966	-0.001161412	-0.00547094	-0.0012113475	-0.0075633135	0.0026466595	0.009070149	-0.0023772502	-0.00097651005	0.0035135616	0.008665088	-0.005921853	-0.006887578	-0.0029329848	0.009147696	0.00086626766	-0.008678401	-0.001446979	0.009479466	-0.0075494875	-0.0053580985	0.009316563	-0.008973726	0.0038259076	0.0006654406	0.0066607012	0.008312753	-0.0028507852	-0.003992313	0.008897917	0.002089646	0.0062489416	-0.009445715	0.009590124	-0.0013483083	-0.006052115	0.0029925345	-0.00045661093	0.0047064926	-0.002283021	-0.0041378425	0.0022778988	0.0083543835	-0.004995606	0.0026686788	-0.007990555	-0.0067733466	-0.00046766878	-0.008767728	0.0027894378	0.0015985954	-0.0023196924	0.005003791	0.009748787	0.008454268	-0.0018802249	0.0020581519	-0.004003689	-0.008241406	0.0062779556	-0.0019491815	-0.00066620467	-0.001771332	-0.0045356657	0.0040617096	-0.0042701806
江苏	-0.0095785465	0.008943115	0.0041650687	0.009234735	0.0066435025	0.0029247368	0.00980402	-0.004424641	-0.006803311	0.0042273807	0.003729	-0.005664611	0.00970476	-0.0035583067	0.009549406	0.0008347261	-0.0063384566	-0.001977117	-0.0073770545	-0.002979523	0.0010416972	0.009482687	0.009355848	-0.0065958775	0.003475151	0.0022755705	-0.0024893521	-0.009229172	0.0010271263	-0.008165706	0.006320189	-0.0058000805	0.005535439	0.009833723	-0.00016000033	0.0045284927	-0.0018094003	0.007360761	0.003940097	-0.009010324	-0.002398504	0.003628769	-9.9568366e-05	-0.0012012708	-0.0010554385	-0.0016716016	0.00060495257	0.0041650953	-0.0042527914	-0.0038336217	-5.2816868e-05	0.00026935578	-0.00016880632	-0.0047855065	0.0043134023	-0.0021719194	0.0021035396	0.000666523	0.005969677	-0.006842381	-0.00681571	-0.0044762576	0.009435829	-0.0015918827	-0.009429242	-0.0005450416	-0.004448923	0.0060000787	-0.009583686	0.002859001	-0.009252832	0.0012498009	0.005999198	0.0073973476	-0.0076214634	-0.0060530235	-0.006838441	-0.00791834	-0.0094990805	-0.002125497	-0.0008359325	-0.0072562015	0.0067870365	0.0011196196	0.0058288667	0.0014728665	0.0007893658	-0.0073681297	-0.002176658	0.0043210792	-0.0050853146	0.0011307895	0.002883364	-0.001536361	0.009932295	0.008349635	0.0024156666	0.0071182456	0.0058914376	-0.005580617
公约	-0.0051562428	-0.0066683376	-0.007776835	0.008310728	-0.001982342	-0.0068549635	-0.004154389	0.0051441262	-0.0028691364	-0.0037496602	0.0016214252	-0.0027762938	-0.0015843606	0.0010744918	-0.0029779447	0.008519283	0.003910935	-0.009958863	0.0062595997	-0.006754254	0.0007694328	0.0044042347	-0.005103375	-0.0021106696	0.008095479	-0.0042437925	-0.007636261	0.009257913	-0.002155497	-0.0047194324	0.0085708	0.004283339	0.0043248367	0.009284513	-0.00845308	0.00525532	0.0020393515	0.00418828	0.0016979002	0.004464134	0.0044862903	0.006104522	-0.0032020975	-0.004575728	-0.00042651652	0.0025337338	-0.003263167	0.006057718	0.0041541304	0.0077645923	0.0025692724	0.008116683	-0.0013872099	0.008077928	0.003717016	-0.008047325	-0.0039336146	-0.0024718784	0.004893044	-0.000872159	-0.0028309084	0.007833707	0.0093229	-0.0016149282	-0.0051592495	-0.0047017587	-0.004846051	-0.009602826	0.0013720202	-0.0042249155	0.0025267089	0.0056144833	-0.0040659057	-0.009596582	0.0015466976	-0.0067001223	0.0024951743	-0.003780632	0.0070784213	0.00064022065	0.0035609389	-0.0027391338	-0.0017105473	0.007652793	0.0014076781	-0.0058504487	-0.007834497	0.0012326873	0.006454631	0.0055563496	-0.00897705	0.008592164	0.004046978	0.007469605	0.0097463345	-0.00728958	-0.009039963	0.0058360007	0.009391213	0.0035069252
事件	0.007088797	-0.00156793	0.007947499	-0.009488659	-0.008029499	-0.006640371	-0.0040034545	0.004989216	-0.0038135587	-0.008319905	0.008411777	-0.003747002	0.008608696	-0.0048957514	0.003918594	0.004922017	0.0023926091	-0.0028188038	0.0028491246	-0.008256236	-0.0027655398	-0.0025911583	0.007249006	-0.003463403	-0.006599703	0.004340427	-0.00047448516	-0.0035975564	0.006882472	0.0038723124	-0.0039002013	0.0007718885	0.009143502	0.007754656	0.006361872	0.0046673026	0.0023844899	-0.0018416261	-0.006371293	-0.0003018105	-0.0015653884	-0.0005722857	-0.006262871	0.0074340473	-0.006591493	-0.0072392775	-0.0027571463	-0.0015154004	-0.0076357173	0.000698241	-0.0053261113	-0.0012755442	-0.0073651113	0.0019605684	0.0032731986	-2.3138524e-05	-0.005448358	-0.0017260861	0.007084917	0.0037362587	-0.008881049	-0.0034135508	0.0023541022	0.0021380198	-0.009464008	0.004571166	-0.008656997	-0.007387068	0.003483112	-0.0034709584	0.003564471	0.008894091	-0.0035743224	0.009320425	0.0017110384	0.009847774	0.005705043	-0.009149483	-0.0033277308	0.006530175	0.0056027793	0.008705515	0.0069261026	0.008038888	-0.009823008	0.0042988253	-0.0050300765	0.003512386	0.006056688	0.0043921317	0.0075123594	0.0014977157	-0.0012649416	0.0057684006	-0.0056395675	3.8591625e-05	0.009456587	-0.00548125	0.0038142789	-0.008113021
监听	0.009770293	0.008165114	0.0012809718	0.0050975787	0.0014081288	-0.0064551616	-0.001428051	0.0064491653	-0.004617306	-0.0039930656	0.0049244044	0.0027130984	-0.0018479753	-0.0028769434	0.0060107317	-0.0057167388	-0.0032367026	-0.006487825	-0.0042346325	-0.008580995	-0.004469789	-0.008511229	0.0014037776	-0.0086181965	-0.009916656	-0.008201625	-0.006772666	0.006680585	0.0037845564	0.00035616636	-0.0029579818	-0.0074283206	0.0005334187	0.0004998922	0.00019561886	0.00085259555	0.0007863307	-6.81603e-05	-0.008007054	-0.0058702733	-0.008382912	-0.0013120425	0.001820637	0.007417128	-0.001963427	-0.0023252917	0.009487155	7.970452e-05	-0.0024045217	0.008604847	0.0026870037	-0.0053439722	0.006588106	0.0045101536	-0.007054467	-0.000323174	0.0008344865	0.0057473574	-0.0017176545	-0.00280653	0.0017484308	0.0008471715	0.0011928272	-0.0026342822	-0.0059857843	0.007322984	0.0075873756	0.0082963575	-0.008598847	0.0026364254	-0.0035599626	0.009620404	0.0029037679	0.0046411133	0.0023856151	0.006608478	-0.0057432903	0.007894413	-0.002410922	-0.0045618857	-0.0020609903	0.009733558	-0.0068565905	-0.00219172	0.0070009995	-5.5749417e-05	-0.006294967	-0.0063935257	0.008940395	0.006429576	0.004773593	-0.0032620477	-0.00926762	0.0037868882	0.0071605504	-0.0056328895	-0.007865013	-0.00297274	-0.0049318983	-0.0023151112
登录	-0.0019442164	-0.0052675214	0.009447114	-0.0092987325	0.0045039477	0.005404178	-0.0014092624	0.009007093	0.00988536	-0.005475043	-0.006021	-0.006746973	-0.007894882	-0.0030479168	-0.005594027	-0.00834468	0.00078290224	0.0029946566	0.0064147436	-0.00262895	-0.0044534765	0.0012495709	0.00039146186	0.008116999	0.00018280029	0.007231586	-0.008264516	0.008433537	-0.0018889094	0.008701154	-0.007616837	0.0017963862	0.0010564864	4.600525e-05	-0.0051032533	-0.009247698	-0.0072642174	-0.007951174	0.0019137275	0.00047846674	-0.0018131376	0.007120166	-0.002475692	-0.0013473093	-0.008900564	-0.009925413	0.008949398	-0.005753938	-0.0063729975	0.005199407	0.0066699935	-0.0068316413	0.0009597599	-0.0060084737	0.0016473436	-0.0042892788	-0.0034407973	0.0021856665	0.0086615775	0.0067281104	-0.009677057	-0.0056221043	0.007880333	0.0019893574	-0.004256052	0.0005988121	0.009520961	-0.0011027169	-0.009424638	0.0016084099	0.006232355	0.00628237	0.0040916502	-0.005650239	-0.00037069322	-5.531788e-05	0.0045717955	-0.0080415895	-0.008018309	0.0002647507	-0.008608299	0.0058201565	-0.00041781188	0.009971177	-0.0053439774	-0.00048613906	0.0077567734	-0.0040679323	-0.0050159004	0.0015900708	0.0026506938	-0.0025649595	0.0064475285	-0.0076599526	0.0033935606	0.00048997044	0.008732183	0.005982714	0.006815362	0.007822544
管理中心	-0.00950012	0.009562223	-0.0077707553	-0.0026455082	-0.004906409	-0.0049666967	-0.008023591	-0.0077835848	-0.004553212	-0.0012753617	-0.0051029883	0.006140542	-0.009516619	-0.0053071044	0.009437152	0.006991329	0.007675816	0.0042347396	0.00050709245	-0.0059811436	0.006018777	0.0026350308	0.0076994337	0.006393843	0.00794257	0.008657407	-0.009895755	-0.006755705	0.0013375747	0.0064403033	0.007373816	0.005516981	0.0076616253	-0.005125568	0.0065844096	-0.004108373	-0.0090553425	0.00914168	0.0013314044	-0.0027596795	-0.0024778426	-0.0042204787	0.004812337	0.004400222	-0.0026533627	-0.007341881	-0.0035658514	-0.00033661484	0.0060958923	-0.0028373385	-0.00012089491	0.00087972643	-0.0070956494	0.0020650018	-0.0014324236	0.0028021492	0.0048422217	-0.0013520193	-0.002780143	0.0077386475	0.005045599	0.0067135217	0.004515643	0.008667155	0.0074749696	-0.0010818875	0.008747638	0.0046017184	0.0054406333	-0.0013860846	-0.0020413185	-0.0044243457	-0.008515197	0.0030377281	0.008883192	0.008919742	-0.0019423545	0.0060861576	0.0037797235	-0.0042959657	0.002042924	-0.0054378854	0.008208892	0.0054329084	0.0031844343	0.0041025686	0.00865715	0.007272035	-0.0008334732	-0.007072768	0.008380473	0.007233584	0.0017304718	-0.0013474918	-0.005890092	-0.0045330906	0.008647966	-0.0031351077	-0.0063388194	0.0098700775
导航	0.0076966463	0.009120642	0.0011355019	-0.008325079	0.008425016	-0.0036962307	0.005742173	0.0043915794	0.009689945	-0.009293498	0.009208405	-0.009281528	-0.006907712	-0.009102195	-0.00554711	0.007368896	0.009164478	-0.0033253515	0.0037230505	-0.0036252034	0.007881471	0.005866876	2.0861626e-07	-0.0036286747	-0.007224306	0.004768616	0.0014529788	-0.0026131857	0.007837807	-0.0040496145	-0.009148986	-0.0022554707	0.00012514711	-0.006639255	-0.005486616	-0.008499777	0.009229873	0.007424028	-0.00029524326	0.0073676636	0.007950788	-0.00078357337	0.006612091	0.0037675237	0.0050768424	0.007252991	-0.0047393893	-0.002185533	0.0008731234	0.004236206	0.0033043313	0.0050958274	0.0045864857	-0.008438509	-0.0031838394	-0.0072367596	0.009681422	0.0050065992	0.00017084122	0.004112978	-0.007656131	-0.006294651	0.0030763936	0.0065346383	0.0039498745	0.006018022	-0.0019861318	-0.0033451295	0.00020717025	-0.0031943608	-0.0055169044	-0.0077885604	0.006535543	-0.001090337	-0.0018908798	-0.007804775	0.009337573	0.00086814165	0.0017696369	0.002491666	-0.007385993	0.0016388226	0.002976563	-0.00856703	0.004955802	0.0024334085	0.0074979127	0.0050442982	-0.0030317164	-0.007162937	0.0070962133	0.0019015349	0.005199236	0.006381109	0.0019122792	-0.0061276113	-6.2966346e-06	0.008268298	-0.006098548	0.009438281
中西部	-0.0071909428	0.0042328904	0.0021633946	0.0074407146	-0.004889265	-0.0045643463	-0.006098174	0.0032993674	-0.004499463	0.008522885	-0.004288827	-0.00910542	-0.0048163556	0.0064164903	-0.006371324	-0.0052615367	-0.007304411	0.0060222615	0.003357594	0.0028483903	-0.0031385506	0.006030891	-0.0061527453	-0.0019801008	-0.005983082	-0.0009956801	-0.002020986	0.008485946	7.800102e-05	-0.008575326	-0.0054290984	-0.006875986	0.0026923812	0.009456648	-0.005815996	0.008265026	0.008532052	-0.007062639	-0.008883213	0.009469184	0.008374364	-0.0046908916	-0.006726041	0.007842137	0.0037633455	0.008095504	-0.007571546	-0.009525085	0.001577406	-0.009805768	-0.0048858845	-0.0034601032	0.009620923	0.008623569	-0.0028356076	0.005826873	0.008237095	-0.002262981	0.009528542	0.007160215	0.0020415008	-0.0038487636	-0.00508175	-0.0030516528	0.0078878645	-0.0061904346	-0.0029150224	0.009191022	0.0034566557	0.006072612	-0.008032816	-0.0007515049	0.0055224476	-0.0047144685	0.0074784933	0.009319591	-0.00040936828	-0.002063601	-0.0005933583	-0.0057858895	-0.008386281	-0.0015068734	-0.0025571836	0.004382434	-0.0068675173	0.0054136957	-0.0067450856	-0.00782029	0.008471712	0.008918614	-0.0034812402	0.0034914147	-0.005795735	-0.008750086	-0.0055155717	0.006748729	0.0064177597	0.009438073	0.007055285	0.0067549525
计划	0.0013001668	-0.009804303	0.0045877625	-0.0005382228	0.0063320957	0.0017834747	-0.0031297982	0.007759973	0.0015546656	5.52094e-05	-0.004612954	-0.008453524	-0.007766832	0.00867051	-0.00892496	0.009034716	-0.009281018	-0.0002767563	-0.001907047	-0.008931146	0.00863006	0.0067778137	0.003019439	0.004833453	0.000112190246	0.009424681	0.0070212875	-0.009853726	-0.0044332207	-0.0012901116	0.0030477226	-0.0043239524	0.0014491666	-0.007845899	0.0027780735	0.004702692	0.0049373126	-0.0031757022	-0.008427041	-0.009220618	-0.00072289945	-0.007327465	-0.0068149627	0.0061200056	0.0071723033	0.0021174191	-0.007899401	-0.005698988	0.008051845	0.003920844	-0.00524047	-0.0073919045	0.0007715547	0.0034637547	0.0020791935	0.003100804	-0.0056205	-0.009889486	-0.007020837	0.00023030877	0.004618679	0.004526308	0.0018798125	0.0051706745	-0.00010536075	0.0041141664	-0.009123241	0.0077009117	0.006147474	0.0051241564	0.007206669	0.008439797	0.00073869585	-0.0017038607	0.00051862834	-0.009316781	0.008406214	-0.006379932	0.0084278425	-0.004244355	0.0006468427	-0.0091641685	-0.009558568	-0.00783681	-0.0077310563	0.000375582	-0.0072264625	-0.0049502132	-0.0052717067	-0.004289298	0.0070123114	0.00482939	0.008682771	0.0070935916	-0.005694406	0.007240796	-0.009294903	-0.0025875687	-0.0077571664	0.0041926014
认证	0.0018002307	0.0070460914	0.0029446983	-0.0069808494	0.0077126776	-0.005988927	0.008997709	0.0029592048	-0.004015293	-0.0046889936	-0.004416722	-0.006146457	0.009378741	-0.0026495957	0.0077724396	-0.009680335	0.002108791	-0.0012336146	0.007544229	-0.009054601	0.007437563	-0.005105796	-0.006013775	-0.0056491564	-0.0033791696	-0.0034110963	-0.0031956648	-0.0074922014	0.0007087767	-0.00057607173	-0.0016839993	0.0037571322	-0.0076201893	-0.0032214224	0.0051553417	0.008543863	-0.00980994	0.0071953367	0.0053094877	-0.0038796973	0.0085761575	-0.009221992	0.0072486806	0.005363834	0.0012935948	-0.005199754	-0.0041786525	-0.00335678	0.0016082871	0.0015867043	0.0073882435	0.009977593	0.008867337	-0.004006449	0.00964539	-0.0006295407	0.004865433	0.0025490164	-0.0006298101	0.0036674475	-0.005319414	-0.0057566776	-0.007604644	0.0019064343	0.0065258695	0.0008821285	0.0012569487	0.0031715964	0.008134666	-0.0077000605	0.0022607518	-0.00747411	0.0037098122	0.00951055	0.0075202584	0.0064260303	0.008014776	0.006551145	0.006856676	0.008682088	-0.0049480405	0.009212954	0.0050592017	-0.0021302497	0.008487449	0.0050813425	0.0096489545	0.0028324008	0.009867538	0.0011970043	0.009129183	0.003586967	0.0065648053	-0.0036113309	0.006792909	0.0072435737	-0.0021334612	-0.0018595541	0.0036117458	-0.007036427
教育	0.00973555	-0.009780383	-0.00649949	0.002783786	0.0064319875	-0.005367367	0.0027524924	0.009121311	-0.0068154214	-0.006099912	-0.0049896417	-0.0036764122	0.0018497157	0.009682633	0.006437776	0.0003970921	0.0024707688	0.008440491	0.009128979	0.0056287525	0.005946263	-0.007620686	-0.003827672	-0.005680332	0.006181774	-0.0022564495	-0.008779435	0.007619125	0.008399683	-0.003320235	0.009116659	-0.0007383597	-0.0036265193	-0.00038469076	0.00019442677	-0.003504896	0.0028132414	0.005729705	0.0068690097	-0.008903466	-0.0021927285	-0.0054817973	0.0075211	0.006501703	-0.0043607224	0.002326833	-0.005953661	0.00023649573	0.00946176	-0.0026098418	-0.0051877177	-0.0073972093	-0.002911942	-0.00086431386	0.0035278618	0.009741889	-0.0033892752	0.0019017685	0.009681009	0.0015315866	0.0009864962	0.009802371	0.00929546	0.0077080666	-0.0061705266	0.009983986	0.005848987	0.009072666	-0.0019951987	0.003349936	0.006833557	-0.0038937568	0.0066428506	0.0025628626	0.00931373	-0.003035804	-0.0031093692	0.00621539	-0.009078246	-0.0072539914	-0.006500026	-0.0007490742	-0.0023630215	0.006815519	0.009236592	-0.0009097588	0.0014128244	0.0020203567	-0.0020197988	-0.008034341	0.00744105	-0.0042979014	0.0045765187	0.009089704	0.0030432225	0.0031387901	0.004061829	-0.0027012168	0.0038247693	0.00033762335
指标	0.005626712	0.005497371	0.0018291199	0.0057494068	-0.008968078	0.0065593575	0.009225992	-0.0042071473	0.0016075504	-0.0052338815	0.0010582185	0.0027701687	0.008160736	0.00054401276	0.0025570584	0.001297735	0.008402523	-0.0057077026	-0.00626183	-0.0036275184	-0.0023005498	0.005041063	-0.008120357	-0.0028335357	-0.008197427	0.00514971	-0.0025680638	-0.009067107	0.0040717293	0.009017323	-0.0030376601	-0.0058385395	0.0030198884	-0.00043584823	-0.009979436	0.008417704	-0.0073388875	-0.004930407	-0.002657081	-0.0054523144	0.00171651	0.009712814	0.0045722723	0.008088603	-0.00047045827	0.0006449234	-0.002668352	-0.008779561	0.0034313034	0.0020933736	-0.009421854	-0.004968437	-0.009734099	-0.0057197916	0.0040645422	0.008642861	0.00411165	0.0023884643	0.008144778	-0.0011192096	-0.0013977134	-0.008746823	-0.00012579202	-0.0025675725	0.00038607715	0.007279662	-0.0070414604	-0.0039464748	-0.0066646053	-0.0035441148	-0.0033158315	0.002137121	0.0033281683	-0.004957187	-0.0045462907	0.0011386942	0.0054534827	0.0053736498	-0.0029685367	-0.0042665256	-0.005616647	-0.00054498314	0.001946373	0.0015253461	0.0073525296	-0.0027333724	-6.592393e-05	-0.0055276332	-0.0011700654	-0.0077119637	-0.0009593296	0.0013096749	-0.008594744	0.0087485835	-0.009207866	-0.009624677	-0.008511624	0.0073132683	0.0054655685	0.009249462
没有	0.0025701774	0.00084652903	-0.0025394403	0.009357668	0.0027575088	0.0040956484	-0.0011829352	0.00090450404	0.0066243075	-0.00072650076	0.0033415079	-0.0006720209	0.0052483976	0.0036399341	0.0025825298	-0.005309893	-0.0047081006	0.004308022	-0.005907171	-0.0001802063	-0.0006335163	0.0034932434	-0.008442266	0.008817234	-0.0014487446	-0.005330927	0.004054469	-0.0019354904	-0.0077654826	-0.0044967984	-0.00038772702	-0.008946473	0.0005705631	0.0024417937	-0.003225273	0.0025704002	0.0024807977	0.009988216	0.0014305055	0.0020205379	0.0027795613	-0.0020778715	-0.008698616	0.008023174	-0.0019746972	-0.009692314	-0.0065520047	-0.003945861	0.003954347	0.005038581	0.006086011	-0.00677026	0.0006888378	-0.0027752817	-0.005209197	0.0069812727	0.0039519668	-0.003106507	-0.008276907	-0.005140786	-0.00064953446	0.0078117643	0.0060441853	-0.008451656	-0.009563535	0.0071338355	-0.002327566	-0.0036923087	0.0057498324	-0.0058443057	0.005093955	-0.0002424252	-0.0068751634	-0.00033163786	0.006358992	0.009293939	0.002220913	0.005050093	-0.0049745236	-0.0007975519	-0.0053176354	0.0011889625	-0.0017932141	-0.0036326349	-0.0070143794	0.009654432	0.0029758275	-0.0022812248	-0.00418409	0.0077137877	-0.0064818547	0.003121543	0.0007873571	0.008322881	0.0068361773	-0.002908647	0.0025351	-0.0016660726	-0.009454662	-0.002613461
今年	0.0013325238	0.0065408563	0.009984603	0.009062455	-0.008015361	0.006491386	-0.0057147373	-0.0009715748	0.00048282265	0.0065819337	0.0044701435	0.004603727	0.009483124	0.0003826642	-0.0060387133	-0.0063301004	0.0064317896	-0.0052425815	-0.0028498126	0.004075284	-0.0022902358	-0.006025213	-0.002323655	0.001206919	0.0021833598	0.0060837734	-0.005214001	0.0030779613	0.007240676	0.0021951138	0.00539749	-0.0048453333	0.006152612	-0.0076012816	0.0034928655	-0.009321804	-0.0026043104	-0.009073199	-0.0015882683	-0.005364752	-0.0039439187	0.0011536527	0.0028003477	-0.0015263951	-0.008170515	-0.0059180222	0.00081929564	-0.0039462578	-0.009430448	-0.0007749748	0.0066332687	0.005978844	-0.009917259	0.003118583	-0.005987301	-0.009181891	0.00017021298	-0.00036962033	-0.0069719995	-0.0062800576	-0.0024260855	0.0070966566	-0.007545879	0.007698084	-0.0004754448	0.0010932934	0.009482661	0.00472816	-0.0035727667	0.0037356198	0.003519286	0.0063366974	6.933927e-05	-0.0044236863	0.0013182712	-0.0054142345	0.0014117574	0.004926181	0.005154848	0.009181637	-0.007512665	-0.005403644	0.0064693727	0.0013554788	-0.006611801	0.00088438985	0.0026770402	-0.0025288356	-0.0049601602	0.005004755	0.009621821	-0.0073646735	-0.00011532188	-0.0025644589	-0.006365142	-0.0013786554	-0.0052507855	0.009059995	-0.0057907687	0.003686075
跨省	-0.00023748518	0.0042191767	0.0021141458	0.009995822	0.0006294811	-0.0054644262	-0.0011796928	0.002070532	-0.0033730685	-0.007846767	-0.0055992617	-0.0067500677	0.006353327	0.0039225565	0.008215535	0.0065196683	-0.0061278404	0.0027159513	0.008472126	0.0015956569	0.003068229	0.0058126138	-0.008839372	0.0091247475	0.006819483	0.008510443	-0.008226262	0.0061755395	0.006629071	-0.0013576425	-0.0062938654	0.00532668	-0.0068595777	-0.005323354	0.0035116898	0.008080972	0.008692694	-0.004405315	-0.00918877	0.009607694	0.006290308	-0.003966335	-0.008459729	-0.004718335	-0.0039572273	-0.0032734512	0.0008190918	-0.00029716254	-0.003112377	-0.0059959874	0.00942052	-0.0047255373	-0.0072620986	0.0076847305	0.0025176955	0.008626396	-0.004465116	-0.0068924036	0.0009849024	-0.0011729765	-0.009397064	-0.0016030729	0.003050599	0.006565782	0.006845242	0.0032082784	-0.0044432725	-0.0018391669	-0.003940258	0.005773915	-0.006358709	0.0021030188	-0.0013452339	-0.0058127786	-0.0072462116	0.0058525624	-0.008358205	-0.0006872499	0.0028274262	0.00773901	-0.007297908	0.0033045732	0.0098084975	-0.006977079	-0.003534858	0.0051335134	0.0052383854	0.0016241145	0.007971135	0.0008315885	0.0018713165	-0.0016052496	-0.008166278	0.0032578039	0.0019663644	-0.008734205	-0.0006750071	7.667064e-05	-5.9592726e-06	0.008710134
说明	-0.0025087667	-0.0059026573	0.007483337	-0.0072597326	-0.008966119	-0.0017895937	-0.008367437	0.00039020777	0.001945734	-0.0024694835	-0.00644801	-0.00032117963	-0.001098504	0.0034933614	0.008127013	0.005855571	0.008440988	-0.008968171	0.009442487	-0.002365756	0.008697052	0.0023846172	0.0035852408	-0.009581688	-0.009486454	0.008983921	-0.0028967678	0.0028164184	0.006419443	-0.000299927	0.009721897	-0.001033715	-0.009672875	-0.0070548477	-0.0010431564	-0.008674901	0.0074214484	0.0036193335	-0.008746946	0.008479723	0.008929639	0.0058473693	0.0069098533	-0.009570913	0.0004924679	-0.009220631	-0.003666017	0.00025316954	-0.00028040647	0.0014652824	0.0032775437	0.0021269275	0.005319847	0.0075204954	-0.005885689	0.007957315	0.005991508	0.009785888	0.004623858	-0.0033272756	-0.003746407	-0.0006291235	-0.0016551983	0.009872586	0.0011232042	0.0040072547	0.0034185564	-0.008851303	0.006720618	0.008191031	-0.0016658413	0.0023334539	-0.0064792144	-0.006125755	0.008216045	-0.0030454195	0.006740032	0.0015531849	-0.0019815636	0.003055328	-0.0040210555	-0.0017854309	0.0013807297	0.0048871813	-0.0014052236	0.0006565297	-0.007932451	0.009495156	-0.008762551	0.00706992	0.0039051378	-0.006998069	-0.005295178	-0.007938247	-0.005130279	0.0070705917	0.009640618	0.0021546124	0.0006404054	0.00952447
孩子	-0.0049735666	-0.0012833046	0.0032806373	-0.006414033	-0.009701589	-0.0092602335	0.009020697	0.0053716935	-0.004788227	-0.008329642	0.0012939513	0.0028780627	-0.0012452841	0.0012708711	-0.004321303	0.004791366	0.0014751852	0.008877825	-0.009976514	-0.0052695703	-0.009102842	-0.00034791828	-0.007857306	0.005031241	-0.006396855	-0.0059528374	0.0050709103	-0.008159769	0.0014552021	-0.007239541	0.009862422	0.008633759	0.0017689526	0.0057885037	0.0045962157	-0.005991783	0.009756947	-0.0096822055	0.008049258	0.0027563798	-0.003055122	-0.0035618627	0.009071954	-0.0054409085	0.008186872	-0.006008887	0.008391377	-0.0005554938	0.007942599	-0.0031549716	0.005979215	0.0088043455	0.002543838	0.001317749	0.0050391923	0.008002522	0.008568014	0.0084927725	0.0070525263	0.00800265	0.00859974	-3.3091306e-05	-0.0010037315	0.0016657913	3.273487e-06	0.00068517687	-0.008600937	-0.009594731	-0.002314676	0.0089282	-0.0036475873	-0.0069781933	0.004879383	0.0010691178	0.0018510211	0.0036529566	0.0035206736	0.005726122	0.0012343001	0.0008444631	0.009045251	0.0027822172	-0.0047028554	0.0065421867	0.005213312	0.002870567	-0.0031378341	0.0033368361	0.006364298	0.00708104	0.00094116566	-0.008531767	0.00025776148	0.00037042022	0.003942982	-0.00946896	0.009707871	-0.006972277	0.00576144	-0.009429872
所有	0.009648528	0.007324829	0.0012616563	-0.003405236	-0.00045065998	0.00042262315	-0.006409205	0.005745158	0.0023714018	0.0037779354	-0.0072550178	0.008526291	0.0005082536	-0.00020392657	-0.009071607	0.0040487554	0.0067634354	0.0073550926	-0.006417525	-0.00785606	-0.005523714	-0.00060289743	-0.00833798	-0.008240116	-0.0019175697	0.0011392868	-0.009506548	-0.003732934	0.0006447804	0.0068099652	0.0017349911	-0.00063238264	-0.007481395	-0.0067420946	-0.0006944287	0.0074675824	0.00544287	-0.0014826906	0.0011723089	-0.0096057765	-0.0013844955	-0.004626223	0.005809311	-0.0023380124	-0.0047640656	-0.009475115	-0.0012003147	-0.00719777	-0.0016852176	-0.004069823	-0.0023741352	-0.003248335	-0.008156473	-0.0012484109	0.0016909433	-0.0040476443	-0.0076414524	-0.0035866357	-0.009047134	-0.000758425	0.0058830045	-0.002961346	0.0031617582	0.004995718	0.008468428	0.0056214156	0.009508546	-0.009646681	-0.007962675	-0.0067581558	-0.0074677086	-0.007963618	-0.007788169	-0.0029426264	0.0013961601	-0.0028747893	-0.0088162515	0.004985862	0.00090089085	0.0045904014	0.007195338	0.007648294	-0.0008046472	0.00365996	-0.005123576	0.0019106817	0.0045382692	0.009886663	-0.0031874895	0.002839334	-0.0057363496	-0.0022105658	0.008125096	-0.0039046574	-0.0011885798	-0.009284974	-0.009476776	0.008882767	-0.005702922	0.005052792
教育厅	-0.006963607	-0.0024585116	-0.008022937	0.007500528	0.0061274157	0.0052584694	0.0083778575	-0.0006965327	-0.009312728	0.009115666	-0.0049285362	0.00784799	0.0055338596	-0.0010790766	-0.0076642158	-0.0014598024	0.006253537	-0.006966083	0.0014420962	-0.007951858	0.008721348	-0.0028557885	0.009437302	-0.0057080747	-0.009717724	-0.008627904	-0.0040748348	0.0047095944	-0.00024193883	0.009223512	0.0031092144	0.0037477673	0.0029963492	0.008148649	-0.0023967146	0.007407339	-0.009536713	0.0029210865	-0.0006816697	0.0004522574	0.00684301	-0.0028419732	-0.0023567795	-0.00010047674	-0.0004976916	-0.0035749613	0.006244483	-0.0065586674	0.007892	-9.346008e-05	0.0026088404	0.0032231498	-0.0002816534	0.0017063022	-0.0031406546	0.0047564553	0.00024301052	-0.0032805956	-0.008714574	-0.009998079	0.00031277776	-0.00574681	-0.0011096597	-0.0042060935	-0.008638825	0.0010620963	0.0059110904	-0.00221097	-0.007170817	0.0031534373	-0.000384686	-0.0055211424	-0.0011056293	-0.0006396544	-0.0031830894	-0.009955077	0.007638594	0.0037260079	-0.0025292134	0.007307174	0.0004545903	0.007173152	-0.0015475631	0.007493668	-4.2631626e-05	-0.0060773613	-0.0047158506	0.009628424	0.0005810618	0.0010274005	0.008450287	-0.0062884046	-0.0017638588	-0.00817892	-0.0066747544	-0.008580487	0.0039306106	0.0027393461	0.005615413	0.002571758
考生	0.002113515	0.005735155	-0.0021164084	0.0031722975	0.008443761	0.00038807152	0.006294583	-0.006743568	0.0065758214	0.0046894765	0.0050803483	-0.009918785	-0.0004294443	0.0032061124	-0.0058259894	-0.0066937874	0.0063639055	-0.0068237507	-0.0051825	0.008121839	-0.007020297	0.0085453745	0.00065462233	0.004405707	-0.0030124402	-0.005427735	-0.008947534	-0.00061247346	-0.0051022377	-0.0030760348	0.008111455	-0.00764791	-0.0063092792	-0.005263678	-0.0066037406	-0.008840623	-0.0011100412	0.009445978	0.008036537	-0.0052740965	-0.008137507	-0.0022573948	-0.009266782	-0.0050677396	-0.005947807	0.0030251218	-0.0075690425	0.0012505853	0.0022869015	0.0053133154	-0.002020396	-0.009771661	0.0052216672	-0.005906494	0.004885756	0.0019747543	0.00881742	0.0015313375	-0.0018274629	0.0064887702	-0.0070699216	-0.008389063	0.0037891709	-0.0025769507	-0.0041838395	-0.0019248783	-0.009875093	0.00026053787	-0.0010566545	-0.0029714168	0.002500645	0.004693395	0.0063426066	-0.007913747	-0.0049889944	-0.00878747	-0.008949036	-0.003730061	-0.001273706	-0.008212633	-0.00537632	-0.0021517742	0.0063426876	0.0015686083	0.008314688	-0.008316208	-0.0045758747	-0.00080408336	0.008800179	0.0011063516	0.0015399777	0.001290785	0.0029226209	-0.009395946	0.0032544017	0.005464685	0.0052863276	0.004439888	-0.0080863675	-0.004059777
减招	0.008348911	-0.0005730915	-0.009436779	0.0047836374	-0.0060451375	0.0066814935	0.0053737783	-0.005045673	0.0025694286	0.005416641	-0.0035853053	-0.0015160334	0.009169571	0.009063209	-0.009392965	0.0075673093	0.009888049	-0.0028401697	0.002459346	-0.0028033508	0.008645445	-0.000283283	0.0056363083	0.009212895	0.004110247	-0.00712039	-0.0019258297	0.0009780251	0.0020340765	0.0029542148	0.009449359	0.004401101	0.0099139	-0.008657703	-0.005754416	0.0019863057	0.0036561727	-0.00099118	-0.0069116484	-0.0032116629	-0.008527572	0.009410714	0.0037244356	-0.007879418	0.0031869686	0.0041738357	-0.0056389845	-0.0059127915	0.0010383666	0.0089620445	-0.009646281	6.2906743e-06	-0.0068649445	-0.00093224883	0.0030410015	-0.005029967	-0.0027760041	0.0006755877	-0.006362221	0.0072865784	0.0043784226	-0.008558534	-0.0021489717	0.0031645298	-0.008327594	-0.007068913	-0.008453741	-0.005498592	0.008856097	0.007077049	0.0028857135	-0.008554569	0.005743233	0.0046334174	0.00011897683	-0.008842938	-0.0018837297	0.0001908648	-0.0077579427	0.0024701594	0.00048376678	-0.0070600295	-0.008269409	0.006042191	-0.008350491	-0.005579785	0.005580125	-0.00048635126	-0.0030543648	-0.0051943767	-0.0011979473	0.0052717174	-0.0059464397	-0.0049771736	-0.004948623	-0.004756348	-0.007980092	-0.0097564645	0.007582166	0.007996751
职业	-0.0042843176	-0.009328062	-0.0018725157	-0.003708272	0.00909861	0.002940142	-0.0059781442	-0.0033582854	-0.009902483	0.0019441211	-0.0039883684	-0.0027087033	0.0051764906	0.0075990222	0.004383826	-0.0068204165	0.006698642	-0.009631792	-0.006987288	-0.008006001	-0.0022629309	0.00047984003	-0.0037722825	0.001845373	0.009207185	0.0066780555	-0.0010548246	0.00909296	0.001556896	-0.0019739114	-0.00659495	0.0064739026	-0.009069603	-0.0018966055	0.007692398	-0.0025868607	0.0016061926	-0.007346115	0.004978081	0.007373067	-0.009308539	-0.003277855	0.007892739	0.0029338216	1.4542341e-05	0.00034330843	-0.009865428	0.00993675	-0.0020013405	-0.004887321	0.0027492405	0.0010299719	-0.0059315898	0.005792644	-0.0025034654	-0.0061783805	0.0072357096	0.006463475	0.008820282	0.0011633944	0.0005100012	-0.007929619	0.0046488834	0.009361135	-0.0006796396	-0.0017629695	-0.0038131678	-0.0004918766	-0.0076174354	0.0056892456	0.0014908862	0.009292746	-0.006424404	-0.0050892304	-0.0062346505	-0.007276691	0.002756567	0.004894618	0.0013419699	0.0035407497	-0.009388275	-0.0010695899	-0.0077428864	0.002952137	-0.0026861357	0.008882999	-0.0034343398	0.0068382192	0.00411487	0.0013643933	-4.046202e-05	0.008172534	0.0023617374	0.008258228	0.0033353854	0.005423112	0.005101913	-0.0076287817	-0.0057886005	0.0012341774
官方	0.00019430876	0.002145337	0.0010656428	0.007586695	-0.004421694	0.00032459735	0.0070065353	0.0022517943	0.0042427504	0.004303278	-0.0012656462	-0.008322575	0.003044256	-0.008873142	-0.0026608598	-0.0093920445	-0.00046201586	-0.007863292	0.0074139764	-0.004890318	0.0099182995	-0.009032265	-0.0043121753	0.0019289267	-0.0029974305	0.0014457834	-0.0036808443	-0.000894171	-0.005727366	-0.009821014	0.0063391984	0.00038365484	0.0065095164	-0.0074726283	0.0036635506	-0.009897887	0.0076107313	0.0059245466	-0.00611748	0.00821306	-0.005580047	-0.008553599	0.0015002858	0.0031799627	-0.008096601	-0.008934263	0.009171323	0.0016437746	0.0008743262	0.0024782324	-0.0035071434	0.00173504	0.001958083	0.009806002	-0.0056081307	0.0022730266	0.006307143	-0.006677332	-0.00893379	0.008656218	0.006838051	-0.004019774	0.005742345	0.0007885194	-0.0050106836	-0.0013497567	-0.0048983647	0.006134777	0.0019618655	-0.0083199395	-0.00014626027	-0.0026477408	0.006606526	-0.0011456895	0.0076661026	0.0019482756	-0.00383052	0.0081581585	0.0029495358	-0.0039700377	-0.005599842	-0.003089267	-0.0051345704	0.0034401214	-0.009282635	-0.0058208527	0.003341223	0.0001976502	0.0059951018	-0.003605579	-5.9747695e-06	0.0024750018	0.005460656	0.0016113877	0.009816094	0.003718213	-0.0071821786	-0.0014060747	-0.00836813	-0.0053270734
新闻	-0.0021953976	-0.00970765	0.009295289	0.0020319677	-0.001161182	-0.005503707	-0.0085098315	-0.009903475	0.008944385	-0.0024994253	0.0045923768	-0.0045173643	0.009958059	0.0036547207	0.0010256934	-0.0040441034	0.0012106216	-0.0026468039	0.007350738	0.004478253	0.0009866821	0.003483088	0.0037143505	-0.006785375	0.008930763	0.0017362308	-0.0057874643	0.008656683	-0.0012914777	0.008187038	-0.001506871	0.006987652	0.0027263963	-0.004359729	-0.0037479282	0.009191782	0.001591866	-0.006007011	0.00034962298	-0.0019623982	0.0015845251	-0.0077173174	0.007384087	0.001312226	0.007875197	0.004453044	-0.004393872	0.003752681	-0.00063848495	-0.009856249	0.00824213	0.009649374	0.00965339	-0.0037998045	-0.008449623	0.0048277043	-0.007655481	0.008532052	0.0027602506	0.005603337	0.006116494	0.00046480776	-0.0020948946	0.00077317236	0.0098359585	-0.007124536	-0.0015524542	-0.0023585416	0.0048660077	0.0064500393	-0.0041320394	0.003623669	-0.0044811275	0.0032704663	0.008168473	0.003628608	-0.004572811	-0.0030091642	0.007866405	0.009604061	0.005817094	-0.0032740354	-0.0018252826	-0.0062573934	-0.0042955745	0.003374362	-0.0064877463	-0.0066161607	0.00811142	0.009505462	0.008140584	0.0015104342	-0.00879589	-0.007597166	0.0015720784	-0.009527631	-0.007410209	0.0020241237	-0.0029211687	-0.00915701
查看	0.006415433	-0.0089511415	-0.0073454725	-0.001751144	0.0016980087	-0.0010342204	-0.0052042734	0.0065792515	0.008782811	-0.0074120974	0.009805566	0.007366648	-0.0074607255	-0.0018999577	0.004252038	0.0070596053	-0.0036636866	-0.0069730817	0.004724835	-0.009038607	-0.005850303	-0.0012834811	0.0054809176	-0.005686941	0.0047847857	-0.00043494583	0.0026672638	0.006403929	0.0014176309	0.0077085746	-0.00032240152	-0.008263703	0.009178499	-0.0048582028	0.004721906	-0.0039027834	-0.007329519	-0.006512649	0.004677334	-0.00065943244	0.0014602697	-0.008928278	-0.0051465523	-0.006054423	0.008412788	-0.0086974325	0.0050248443	-0.0008613515	0.00018937707	0.008799758	-0.0035854375	-0.006937338	0.0007635796	0.007742835	0.009120864	-0.0036847114	0.0027328073	0.0049426113	-0.0052920487	0.006852535	-0.0064529707	0.0021008432	0.004587258	0.0043851123	-0.004666284	0.0026424218	0.007309964	0.008611688	-0.009512531	0.0055747475	0.004968064	-0.001594758	0.009186884	-0.0041810106	-0.0017487227	-0.006863308	-0.0037766756	0.00024267554	-0.0032715332	-0.0054172636	0.006568874	-0.0053028557	-0.0063216304	0.007640967	0.009651184	0.003994919	2.6326179e-05	0.00078929187	-0.00096155284	0.0068626525	-0.0062529948	0.00050760986	0.0042921496	-0.0021114135	0.00089388253	0.0037101412	0.009710053	0.0021757602	0.009500163	-0.005829843
分享	0.004800662	-0.0036283778	-0.00426481	0.0012197578	-0.0041273	-0.005627173	0.0031430137	0.008337658	-0.0065456643	-0.009113942	-0.0033317674	0.007527236	-0.009689016	0.0095982775	-0.000418247	0.0023048043	-0.0018496609	-0.0057621086	0.0031006956	0.006195089	-0.0070529054	-0.0011733163	0.0015594208	0.004248972	0.0071413494	-0.0035466957	0.007275388	-0.005570971	-0.0021948253	0.009084762	0.005382323	-0.008485057	-0.0016556442	-0.0088382205	-0.0016418791	0.005655618	-0.0074182977	0.005510069	0.0060900594	-0.003770479	-0.009655815	-0.002518817	-0.0025530232	0.0037585367	0.008920685	0.001995902	-0.0021115362	0.0029695665	-0.006803719	-0.0012933505	-0.0014832341	0.009604866	-0.005809563	-0.0070402417	0.0023611486	0.0026347698	-0.0071459725	-0.0058777537	-0.0011830223	-0.0033028245	-0.00897573	-0.004049519	-0.0029657544	0.006502665	0.000973897	0.0015988111	0.00027833937	-0.0033841385	0.0031023694	0.00071166514	0.0059828376	-0.0007752192	-0.008901265	0.0008827555	0.009923819	-0.0052491724	-0.0052164663	-0.0025187505	0.008583449	-0.0008316445	0.009418367	-0.00833611	0.009017042	-0.009713122	0.00919956	0.0018727136	0.0026604487	-0.0058586015	0.008439186	0.0060436307	-0.005487138	-0.009498819	0.006968402	-0.0055359304	-0.009321323	0.0025973571	-0.0049780104	-0.0073600505	0.009730559	-0.0015858245
话题	-0.0015110135	-0.004034504	-0.0043988526	-0.0046293857	-0.005595714	-0.0053018034	-0.008022303	0.009518845	0.0063990653	-0.0036066938	0.0024784422	-0.0076424945	0.0075231018	0.008304736	0.00078943017	-0.006832991	-0.002957728	0.004733969	-0.002939384	0.0031764733	0.009408716	0.004353106	-0.0051454795	0.005467093	-0.0028791917	-0.0063939407	0.0070078014	-0.009253933	-0.0011306572	-0.0013853407	-0.008415947	-0.0011023998	0.0055972575	-0.005267652	-0.007026136	0.0062002684	-0.0034264398	-0.007819556	0.00029337048	-4.9802064e-05	0.007540907	0.00056930183	0.007882459	-0.009812782	0.0040332675	0.00621811	0.0010294437	-0.002836411	0.0010266149	-0.00083912135	-0.008108269	-0.0067834724	0.001200155	-0.0020178736	0.009549418	-0.0009494269	0.0061186957	0.002046138	0.008099689	-0.00929052	0.0023927295	-0.0014512575	0.0021549999	-0.00021979929	-0.006640631	0.009050456	-0.002843398	0.001914314	-0.006441698	0.003714218	0.009995805	-0.0011962545	0.006580218	-0.00012432098	0.007928181	0.00965093	-0.00039128662	-0.0016983438	-0.009521616	0.009874873	-0.0025329662	0.0021891915	-0.0016988862	0.008327348	0.008343778	0.0015368855	0.002885666	0.0064340653	0.0022477007	0.006444316	0.00014674067	-0.002285471	0.0053072535	-0.0034152747	-0.0026156104	0.008791729	-0.009154693	-0.0034136428	-0.0029241275	0.00566893
用于	0.007943497	-0.0064516068	0.005794531	-0.00021767258	-0.009031862	-0.0024426687	-0.001584332	-0.004480821	-0.0007937813	-0.0052384343	0.0059405947	0.00930338	-0.001587665	0.0033767426	-0.00074801565	-0.00069963216	-0.0070105614	0.0014569045	0.0039026928	0.0069100726	0.0065388405	0.0035366034	0.004661671	-0.00743211	-0.0013864994	-0.0057826424	0.0068010474	0.007826643	-0.0042740214	0.0011536574	0.005109404	0.0018094849	0.0007859159	-0.00674016	0.009832679	-0.007259703	-0.0060337544	-0.005666082	-0.0063479636	-0.0034910608	-0.009400295	0.0011781335	-0.0037502348	-0.0025512874	0.005784941	0.0035504817	0.0018209183	-0.0013740504	0.009877478	0.00028656007	0.0050154557	0.00903775	-0.009766579	-0.009155372	0.009922828	0.0027367878	-0.0018855811	0.004724064	-0.0043154038	-0.0063976385	-0.008257407	0.00721012	-0.0024493719	-0.007543167	-0.005910386	0.0061755227	-0.0024796904	-0.0061457898	-0.0016179812	-0.001473552	-0.0032548439	-0.0020892383	0.0041057337	0.0014466	-0.0034903418	0.002692374	0.0052289427	-0.009190811	-0.0075583374	0.006296368	-0.008938105	0.0005282235	-0.008993818	0.008369829	-0.0042935372	-0.006620498	-0.0013837707	-0.0011136746	0.007533026	0.009109524	-0.00035077214	0.002693578	0.004737197	0.00014275432	-0.005780002	-0.00059441925	0.0021829747	0.0083017135	-0.0035923254	-0.0098455455
状态	0.0053829267	0.00981069	-0.0070547746	-0.00058250665	-0.005064534	0.006435026	0.009657303	-0.0003330624	0.005140445	0.0065386808	0.0044090427	-0.008031233	0.0031026434	-0.001486386	-0.0021610796	0.0054020835	-0.00131706	0.009927469	-0.00063917873	0.00026362896	-0.0022936391	-0.008513494	-0.009811151	0.0049507655	-0.006620835	0.0029654969	0.002774383	-0.007006782	-0.0031360174	-0.005807562	-0.008564556	3.8166047e-05	0.009787056	-0.0066758823	-0.0043618535	0.008330327	0.009298513	0.009815406	-0.0098923175	0.005047954	-0.006642091	0.0068798447	0.0061408984	-0.0033756078	0.0068841362	-0.007866392	0.0045495653	0.0045803715	0.005923282	0.0058795023	-0.0026633476	0.0038956022	-0.006108527	-0.0064589716	0.0027430165	-0.009466188	-0.00029909133	0.001091137	0.008004461	-0.007001587	-0.002322954	-0.0041061365	-0.0052279388	-0.0004718876	0.0046112146	-0.0049819136	-0.0016456568	0.008656379	-0.0013084364	-0.0035718156	0.0074316356	0.0012192046	-0.00034047366	0.009459775	0.008125607	0.0034178542	0.0033582544	-0.0022847129	0.00809452	0.005060886	-0.005425744	-0.0061291386	-0.0005993521	-0.007920456	0.00336671	-0.009224419	-0.0015445673	0.0033561743	0.0030458248	0.0031597614	-0.009063667	0.0034191823	0.0053463373	0.0034679305	0.007792916	0.0016555488	0.006270219	0.008835115	-0.000942657	-0.00080324174
人数	0.002227013	-0.0075334953	0.005628356	-0.005000116	-0.0032710873	-0.0018326176	0.0082162665	0.0022464062	-0.00090764643	-0.0028452754	-0.0021119476	-0.0012858021	-0.0050829197	-0.0041283322	0.00018744469	0.0045546684	0.0017961443	0.0069026826	0.0006397152	-0.0032243289	-0.0073733125	0.0060070064	0.0069699334	-0.0060583055	0.004683988	0.009498542	-0.006380684	-0.0028769434	-0.009090301	0.0032281112	-0.0034402597	0.0020442116	0.0094394805	-0.008356933	-0.00931305	0.0017166818	-0.008034414	-0.0090675065	-0.009355221	-0.00028839946	-0.0011017036	0.00074376585	-0.001339823	0.0090399515	0.008787731	-0.0063573252	0.008695846	-0.009028108	-0.0013384282	0.002539836	-0.000110168454	-0.0038008487	0.00046882988	0.0010055327	-0.009408971	-0.004889884	-0.0077108596	0.003807093	-0.0008848989	-0.007483584	0.005635656	0.0002377379	0.0026978862	0.0054308414	-0.0042302837	0.007844944	-0.007857703	-0.003442961	-0.007366512	0.00097402575	-0.0073902737	0.00906269	0.005534272	-0.00723109	0.0061744247	0.0066042827	-0.0074152853	0.0046547903	-0.007721498	0.009320671	0.00469041	-0.00022905112	-0.0089417575	-0.0008946252	-0.00027099968	0.0009066999	0.008662265	-0.0027761662	-0.008682017	-0.00883374	-0.0010575473	0.0013718653	8.723498e-05	-0.0022029376	0.008547566	0.00010643363	0.0064186715	0.0039910283	-0.007203188	-0.0021236371
账号	-0.007776389	-0.0067576277	-0.0031539737	0.0066151978	-0.0008342266	0.008884157	-0.0022917844	-0.0053043137	0.0039153052	0.002216474	-0.00028038264	-0.0024528813	-0.006002536	0.004037669	-0.007611569	-0.0089065395	-0.009161527	0.0083880685	0.0040005837	0.0070921658	0.009890098	-0.0072258376	0.004028505	0.0028211367	0.006154784	-0.0033879532	0.009330614	-0.005799425	0.0070322095	0.006949744	-0.00039196492	0.0050599836	0.006644651	0.0015435446	0.0073685218	0.002408675	-0.0015207696	0.007394402	0.0046873474	-0.0031722402	0.0016461133	-0.00013998747	0.0049632574	-0.0054124333	-0.0041846107	-0.0009379518	0.0038218843	-0.0065815533	0.007845632	-0.0030878389	0.00573998	0.0028640376	0.0068224845	-0.0044662654	-0.0032020533	0.0030572426	-0.0027748155	0.005942525	-0.0059542265	0.0025916493	-0.0007227671	-0.00061427	0.002538513	-0.0021852981	-0.0042575207	-0.008552595	0.0024882806	0.0053247083	-0.005867213	0.009109111	0.0040364335	-0.005175426	-0.0013132286	0.0039263736	-0.007005409	0.0020553279	0.005506566	0.006254835	0.0054265927	0.0036600255	-0.002752086	-0.0060784994	0.0081599215	-0.0073016454	-0.0016200733	-0.0032637632	0.0064887144	-0.0062774336	0.0033955073	0.0020475246	-0.0040790164	-0.008242691	-0.008037725	0.0035056507	-0.009561276	0.005706798	-0.0029124285	-0.009173061	-0.005136118	0.0077442704
收藏	-0.001721412	0.0064061354	-0.009276536	-0.009146532	-0.005202178	0.00095223903	-0.007175615	-0.009446025	-0.008885669	-0.00046301365	0.007413511	-0.008378588	-0.0053330194	0.0015175033	0.0033193338	-0.008458166	0.007867761	-0.0082163755	0.004736303	0.00941531	0.005660174	0.0061728633	0.008236631	0.0034529127	-0.007144458	0.0057470677	-0.008312941	-0.005723864	0.0059056757	-0.007929402	-0.005870379	-0.003558364	0.00339306	0.0052196966	0.0020552755	0.005108552	-0.0026270736	0.004351983	-0.007048397	-0.0016602444	-0.007744801	0.00017380595	0.0046981587	0.004800031	-0.0046552704	0.0017504728	0.007811227	-0.0055738185	-0.0037877548	-0.0005975401	-0.0047197603	0.00869686	0.0075421287	0.009221414	0.009362886	-0.008450839	-0.00047973992	-0.007606381	-0.004809767	-0.008839706	0.003415774	0.00010644913	-0.00691568	0.007963084	0.00095298054	0.0002985716	-0.0035640658	-0.0033466064	-0.0026424371	0.0076221754	0.0023945929	-0.0051709306	0.0047299396	0.0009904968	-0.0027331484	0.0077094496	-0.003947239	0.00743152	-0.0042154347	-0.0073564625	-0.004496534	-0.003898498	-0.0007044029	-0.0018445099	0.0051112175	0.005450568	-0.0017388356	0.0037336934	-0.0020284653	0.00073460577	-0.0013664376	-0.0024628246	-0.004716823	-0.004261787	0.00012702227	0.0016494489	-0.00944871	0.0060763573	-0.0016806173	-0.002974379
湖北省博物馆	-0.004794074	-0.0043165493	-0.0048005986	-0.009803971	-0.00077741384	-0.007792387	-0.004812025	-0.0073749805	0.009935683	-0.0013558948	-0.0077542425	0.00551669	-0.008066355	-0.0019122851	0.0027354658	-0.007079146	-0.008733527	-0.006641573	0.007468343	0.009057697	0.0039914977	0.0024036837	0.004137851	-0.0040704296	0.0097580375	0.0068893204	0.004113734	0.008948889	-0.008393764	0.00093408703	0.008892209	-0.00093913556	-0.0067378758	-0.0022687817	-0.002788416	-0.0024982262	-0.0018441832	0.0072826683	-0.0003004694	0.004242338	-0.0037515305	0.008232374	-0.006502156	-0.009338277	-0.0041394867	-0.007365799	-0.004876615	0.00049479725	0.0023848522	0.001739868	0.0050075795	-0.0013956451	0.0022822	0.0003514433	0.007845403	0.008026788	-0.0019734919	0.0012574327	-0.0060319114	-0.004758587	-0.006970824	-3.168583e-06	-0.0049146996	-0.004046297	0.0015047038	0.0026100075	-0.009118211	0.0017474103	0.00513021	0.004160564	-0.0029069602	0.009480599	0.009449276	-2.716899e-05	0.00085529685	-0.009248271	-0.0048049106	-0.00010150075	0.004043491	0.00015845298	-0.008724637	0.005814871	-0.0074150776	0.008553779	0.005516386	-0.006775446	0.002842487	0.007718282	-0.0061090374	-0.006546913	0.009199036	0.0018047917	0.009710449	-0.009906637	-0.00150141	0.006899829	-0.0014631819	-0.0017565764	-0.0070790136	-0.00566577
许光汉	-0.0065211095	0.008923266	-0.0015846812	-0.008283495	0.008015957	-0.0029608894	-0.0013320053	-0.000675807	0.002826816	-0.00471678	-0.0002578163	-0.002845515	0.00877594	0.0068789003	0.0010995435	-0.006066294	0.0031326115	0.0011364877	-0.0061243796	-0.0057523204	-0.0030965828	0.002386502	-0.008115016	-0.0049918424	0.008098526	-0.0036923087	0.007957927	0.00053580763	-0.0055343723	-0.004964099	-0.0002151823	0.0045926785	-0.0060834764	-0.0055082	-0.0068109906	0.00674646	-0.0024037706	0.0040160525	-0.001626389	-0.007415472	-0.0012683391	0.00040310383	0.0035863924	-0.008676006	-0.0068053626	-0.0065569114	0.002992288	-0.0037421572	0.0010171366	0.0041570487	0.0045188284	0.0023656178	-0.0028730799	0.0006406462	-0.0053916704	-0.0063527273	0.008715727	-0.004050678	-0.009317995	0.0037312114	0.008454169	-0.00018828035	0.0022647404	-0.0035471963	-0.0041924035	-0.008619836	-0.007853004	-0.009079234	-0.005970601	0.008487896	0.009436661	-0.0016792321	1.527667e-05	0.007852856	0.0012625563	-0.0051452722	0.0026280521	0.0018057859	-0.0037263846	-0.00489015	0.009643721	0.0076487376	-0.008570142	-0.005525136	0.001421411	0.0009150958	-0.008351004	0.00932817	-0.005381799	0.004601309	0.009231109	0.0010902929	0.0042205844	-0.002715497	-0.009682348	0.00059986947	-0.0010838866	-0.009920709	0.0070056175	-0.0073859883
大使	0.0051208558	-0.004418019	-0.009191075	-0.009063232	0.006233699	-0.005235338	0.0052528665	-0.0015780878	0.0097005665	0.007163304	0.009890754	0.008380826	-0.007865483	-0.009587063	-0.005570787	-0.00080203655	0.005008185	0.0036698221	-0.0020252264	0.005046862	-0.0033995449	-0.00681378	0.0047105313	-0.009855268	0.0008898628	-0.0050123837	0.007594887	-0.0037159992	0.0028169835	-0.006256744	0.00961522	-0.0055903923	0.0035694528	0.003240006	0.008931563	-0.0055654226	-0.004373571	-0.0062230635	0.006149839	-0.0045831217	0.0048112418	-0.0008920431	0.0072727273	-0.006036333	-9.8186734e-05	-8.76379e-05	-0.008542649	0.008739379	-0.00210459	0.0064352453	9.1472866e-05	0.0050272048	0.0022136462	0.008849817	-0.008329605	0.008433383	0.008649203	0.0010607588	0.004423233	0.0038345146	0.0040557957	-0.0029464257	0.0028445614	0.0007665229	0.004826305	0.008413099	-0.007746115	0.00015239716	-0.008732218	-0.0015746617	-0.009032258	0.0031628453	-0.0015774358	-0.0006986201	0.0064270855	-0.008098497	0.0011495745	-0.0024211956	-0.0037305378	-0.007282941	-0.0079756	0.008292474	-0.0074378466	0.0048176455	-0.0037867976	-0.0012137902	0.002809248	-0.008584462	-0.0056551006	-0.0077394415	-0.009410536	-0.0047516883	-0.0031603025	0.00048571348	-0.0006974161	-0.007876476	-0.0037873185	-0.0027423298	-0.0063846884	-0.006378262
以色列	-0.002607931	-0.00791861	-0.008259738	-0.007585689	0.0035540771	-0.0075884545	-0.003710761	0.00662868	0.007399565	-0.0063979235	0.006798301	-0.007771077	0.00013180851	0.0066165566	-0.0028397667	0.00922022	-0.00032455564	0.0046845553	0.0069524013	-0.008540753	-0.0060704304	-0.007295449	-0.0011709523	-0.007089524	0.00010927677	-0.008043634	0.0005104637	-0.00038909435	0.0064722206	-0.008881645	-0.0031734514	0.005898355	0.009234394	-0.0017851782	0.0007772481	-0.0060945093	0.0008211219	-0.008139475	-0.0076386104	0.0013829279	-8.144021e-05	0.0055616437	-0.0097366385	0.0016551495	0.0015750825	-0.0052475943	7.1128605e-05	0.0060580564	-0.0065998747	0.00028917432	0.00389516	0.001705457	0.002860496	0.008154632	0.0066902316	0.0035060525	0.007975804	-0.007666818	0.0075333845	0.0038895153	-0.0059011113	-0.004192121	0.0063938843	0.005800183	-0.0098604	0.0012479639	-0.0004006064	0.0008136869	0.0070778416	-0.007172923	0.009641128	-0.009457558	0.006219598	0.009496334	-0.0038256205	-0.009392841	0.006184089	-0.0089638615	-0.008295257	-0.0008296287	-0.0066444445	0.00874774	0.007851567	0.00082879665	0.008002034	0.009844699	0.0051898016	0.004318818	0.0053776647	0.006413385	0.004728636	0.0063861907	-0.0074497582	0.008860124	0.008282507	0.009378528	-0.00901782	-0.0034470118	-0.00034225226	0.0041669165
黄瓜	-0.008216973	0.00016809226	0.0060254214	0.009575247	-0.0028420805	0.0018259847	0.006324409	-0.0019993973	0.0019565083	-0.00932489	0.0007104528	0.0045789503	0.004498204	-0.009746658	-0.0051493524	0.002970749	0.001591649	-0.004700248	0.005819278	0.0035117662	-0.007824833	0.009836397	-0.0077167954	-0.003030076	0.00974285	0.0011435866	-0.005545107	0.0011266231	-0.0040914332	-0.0067425165	-0.0077583073	0.0047581587	-0.009032874	0.004061327	-0.005525864	0.005427884	-0.0043655075	-0.005583718	0.0063512386	-0.00864531	0.0013329816	-0.0021254742	-0.006685944	-0.007655276	0.0067570983	-0.004464737	0.0045859003	-0.009660607	0.0019072986	-0.0019550216	-0.0058981013	-0.0027864515	-0.008657054	-0.0034753894	-0.002578106	-0.0022888042	-0.0051066303	-0.009195067	0.0053436067	-0.0013004851	0.006173587	0.0030742919	0.008549236	-0.0035157918	-0.008894834	0.0013332188	-0.008987469	0.006042774	0.008442573	0.0005020511	0.0077024912	0.008537238	0.0042007114	0.005414972	0.009128591	0.0011471319	-0.0082509555	-0.0083257975	-0.0017827868	-0.0006258786	0.008821323	-0.009310776	-0.0025929045	0.009113125	-0.0014422417	-0.009076896	0.0020147574	-0.0058391546	-0.0054824827	-0.00634223	0.00012607574	0.007225101	0.004119314	0.0081534255	0.008847762	0.004521	-0.006051192	0.007068719	-0.009527322	-0.0047912765
遇到	0.008000352	0.00790759	-0.005421866	-0.007977174	0.008075378	-0.0038121247	-0.0040653907	0.0071844123	0.005423826	0.0038177418	-0.0012296462	0.008669007	0.008452157	0.0069737826	0.009066399	-0.005778042	0.0009986961	-0.0016307533	0.006339936	0.009778199	0.0051675295	0.004059764	0.0065322816	0.0058781113	0.00010234594	-0.008343298	-0.002170248	0.009075028	-0.0050799586	0.001008904	0.0048747016	-0.00692801	0.008190874	0.0014734459	0.0024277496	0.008307749	0.0014566254	0.00088965177	-0.009424138	0.009862426	-0.0098660495	0.008550635	0.0050526466	-5.6563615e-05	-0.007873317	0.009341658	-0.001378038	0.0053466284	-0.0030297732	-0.004904864	0.00016399265	-0.008030197	-0.0066411886	-0.00945535	0.0053499164	0.000429008	-0.000915786	0.005099218	-0.00197034	-0.0073847626	0.0028684807	-0.005961616	0.0004890966	0.009476514	-0.00095459935	0.0061400984	0.004463154	-0.0035346888	-0.0052263606	0.008853325	0.0021048249	-0.00045241474	0.00089539884	-0.004921323	0.0035371173	-0.0030998336	0.0042138826	-0.004556581	-0.00079292175	0.0039020635	-0.007149272	-0.0025227594	-0.0087218145	0.001556232	0.0020106984	0.0024073208	0.0010806907	9.0206864e-05	0.0022129489	-0.0009462035	0.0059216106	-0.00295447	-0.0050848853	-0.00532768	-0.009668888	-0.00811292	0.0021179796	0.003984498	-0.0057757534	-0.009681728
逛街	-0.0061553945	0.004668392	-0.009070925	0.005080596	0.006351833	0.0061208867	-0.0076307226	0.002832861	-0.005452918	0.009047107	-0.0043126917	-0.0023511695	0.0052211843	-0.0008233929	0.0050927605	-0.0042199898	0.0049811043	-0.009795018	0.0060749366	-0.0012433863	-0.00560704	-2.0213127e-05	-0.0012235976	-0.00072200416	-0.0017617584	-0.009273197	-0.0078031956	-0.006800139	-0.008628174	-0.0045369817	0.009188095	-0.0018121279	-0.0075968313	-0.005893874	0.0036052454	-0.0027167546	-0.0015587664	-0.0042538703	0.0059619034	-0.007832105	-0.0074977935	0.0075257923	-0.006960554	0.002156757	0.00036995768	0.009667677	0.004240671	0.002067107	0.002755525	0.0023034883	0.0021998524	-0.002722143	0.0040911864	0.0061002136	0.008937504	-0.0007484388	-0.0012222207	0.0064669144	-0.0084649185	-0.0006562436	-0.006673245	0.004783307	-0.008947241	0.0032498038	0.009004738	-0.0020674933	-0.008829994	-0.008178635	0.0032460666	-0.0053461827	0.0064476575	-0.0011888706	0.007853673	-0.00050307036	-0.0062165903	-0.005701473	0.0007689619	-0.0047776187	0.0065614413	-0.0035186673	-0.005626793	0.0009534168	-0.0048695467	-0.008211779	-0.005247861	-0.0018617142	0.00043590783	0.0036384452	0.006868893	0.006727966	0.0058613596	0.00032028914	-0.005821494	0.008999587	-0.00065279123	0.0047100363	-0.0014244199	0.0057981694	0.0053030336	-0.007297273
武汉	-0.002742629	0.000108932254	0.0020345568	-0.009289683	0.0048391484	0.0033721186	-0.00017392993	-0.0034973323	-0.0076046633	0.007596055	-0.008603185	-0.007384194	0.0044516576	-0.00851143	-0.0032841456	-0.0020905565	-0.0019027793	-0.00683529	0.004296526	0.0009988617	0.0036565913	-0.0013283277	0.006935022	-0.009533587	0.005846217	-0.005131441	0.0017032826	-0.0069410596	-0.0024812245	-0.006428846	-0.003350991	0.00972953	0.0026897169	0.001605339	-0.0060838307	0.0055729733	-0.008128617	-0.0022934736	-0.0064684106	-0.0063822567	0.0022970247	-0.003286711	0.0024300802	0.0039164387	-0.006270015	-0.0017449033	-0.002762493	-0.009796312	-0.009838595	0.0011100089	0.0043808725	0.0002324903	-0.0048719957	0.0036277843	0.0016886258	-0.0094416095	0.0071884408	0.0077731526	-0.0077315615	-0.0007644856	0.0060313116	-0.0027804638	-0.0003371203	-0.0042198384	0.0061146296	0.0069955573	0.0020862473	-0.0046995566	-0.0018301117	-0.0039987876	-0.009766937	0.007810992	-0.0006122148	-0.0006040621	0.007084612	-0.009036224	0.0063263737	-0.007565441	-0.005358206	0.005075593	-0.0034946203	-0.003486991	-0.0063080895	-0.0039098943	-0.0026605856	-0.0040949797	0.009453991	0.009454417	-0.000381577	-0.00028439044	-0.0056418204	0.007917587	-0.004944544	0.005890429	0.009112955	0.0057546687	-0.00094814895	0.005540857	0.006945008	-0.003880787
处理	0.00066869735	0.0064887833	0.0058700074	-0.00017737626	0.0023800994	-0.006513871	-0.009360355	-0.004947617	-0.005387889	0.0005870259	-0.003968233	-0.00036958815	0.0076345527	0.009735687	0.007875881	0.0023892177	-0.002713331	0.0024317193	-0.002689917	-0.008950145	0.006893041	-0.00864854	0.0037876796	-0.0039562345	-0.005543058	-0.0010435808	-0.0065629804	0.008584109	-0.0068779336	-0.008960546	0.005766258	0.0044640074	0.004731456	0.0024269414	-0.0037255073	-0.005117301	0.0017721546	0.008346565	-0.0056522763	-0.002382443	0.0018483603	0.0067221927	-0.0063973977	-0.0045277537	-0.00263857	0.0013348305	0.0053712786	0.0055493726	-0.008709503	0.0072726095	-0.0025022244	-0.0028426396	-0.008858556	-0.005775082	0.0094486065	0.0030875301	-0.008042767	0.0028074014	-0.007072759	-0.009057885	0.0038657845	0.0020369685	0.0012546491	0.008846326	0.0062607015	-0.0050706305	0.0027278292	0.0025451027	0.0023978257	0.008333056	-0.0069134166	-0.0022994315	0.0010089492	0.0063777566	-0.0006487334	0.007928119	-0.004651916	-0.009031399	-0.007054099	-0.004137695	0.009583299	-0.0051272656	-0.004848361	0.0081734825	-0.007456185	0.0020097601	0.0057160435	-0.0075303363	-0.0002629769	-0.0023681892	0.005565623	-0.004560453	-0.0066047884	0.009891739	-0.0046231486	0.007604263	-0.008454762	0.0070173442	-0.0033897674	-0.00781486
挤奶	-0.0011709845	-0.002370403	-0.0018185556	-0.0011773551	-0.006517111	-0.0035448861	-0.0031973375	0.0077222944	0.0058669113	-0.00089425204	-0.0048165633	0.005292305	-0.008837635	0.0016494894	0.0040110014	-0.001947695	-0.004524325	-0.008227694	-0.008287414	0.0071273814	0.0036371017	-0.0003864181	0.009710745	-0.008544136	0.000589273	-0.0004442966	-0.008070466	-0.009099837	0.0071887625	-0.0036328936	-0.007901046	0.007952678	-0.006254277	-0.0031218564	0.0017756212	-0.003351413	-0.007964717	-0.003921268	-0.009014121	0.0013977576	-0.004628701	-2.008319e-05	0.0027241493	-0.0023730695	0.008818167	0.007042544	-0.00055088877	-0.00063501	0.0008503473	0.00675033	0.008948386	-0.001927998	-0.0015925551	-0.0029719651	0.00050304533	-0.0064749764	-0.0018674755	-0.008648097	0.00065804005	0.0014342046	0.0037278486	-0.0028739583	0.0059305704	-0.0070778416	0.009816702	0.00053309917	0.0022955155	0.0043562376	0.0004193616	0.0025956917	0.0016146469	-0.009616955	-0.0031474447	-0.002594576	-0.009262821	0.003435321	0.0047997977	-0.002081517	0.007417623	-0.0012108183	-0.00027866484	0.005782436	-0.008473257	-0.0069108545	0.0073512113	-0.006582332	0.008467945	0.0053499998	-0.008046313	0.008401109	0.0063182353	-0.0067148055	-0.008462727	-0.008834657	0.0038312161	0.0063368	-0.0021347213	0.0013413358	-0.008393618	-0.005119375
爆炸	0.004704237	-0.009063847	-0.009237208	0.0010081172	-0.00858489	-0.006937902	0.00475309	0.008005556	-0.007359179	0.008106104	0.0093793655	0.0047118985	-0.004407264	0.009670248	-0.0077272262	-0.0038907623	0.0019339907	-0.007631515	-0.009873724	0.0028640972	0.0081810905	-0.005113397	-0.004290998	0.003909358	0.0006926203	-0.008534969	0.0065537454	-0.0031516338	0.0035830652	0.0031526624	0.008877898	0.008738623	0.0073114396	-0.008287576	0.0012087619	-0.0009641659	0.00087712647	0.008923398	0.004769644	-0.008924442	0.009811819	-0.00089119433	0.0003984976	0.004956163	-0.0062149502	-0.0004048431	0.0013757646	0.0070512546	0.0042809453	-0.0019390512	-0.008467414	-0.0038789595	0.008779056	-0.009491138	0.009846863	-0.00015376807	-0.001130408	0.009604236	0.009572595	0.008271392	0.008999089	-0.009984637	0.007504798	-0.009362416	-0.0077125942	-0.008828121	0.0021575845	0.007182187	-0.006305046	-0.0027143038	-0.0023575975	-0.004477767	-0.0013120138	0.004856006	0.003712654	-0.0032402086	-0.0037125517	-0.0023401594	-0.0032285023	0.003952539	0.009742404	0.007854058	-0.007559663	-0.0064487197	-0.009131934	-0.005930103	0.0036352968	-0.006019263	0.0016953301	0.008886543	0.0033359646	0.0011908842	0.00892278	0.006413332	-0.0014395047	-0.0062111234	-0.0010565401	0.007275797	0.007480532	-0.0040329886
市中心	0.009940562	0.0024018823	0.0051281	-0.0056689656	0.0043790317	0.00025670527	-0.009589526	0.005068009	-0.009009386	-0.0064693643	0.0027868378	0.009282801	-0.0021199167	0.0069789444	0.005068066	0.004068234	-0.0061936593	0.0050747907	-0.008307887	-0.0043169223	0.005447445	-0.008146801	0.005729647	-0.0034925544	2.6643276e-05	-0.0073488783	-0.006243157	-0.0033109845	0.008603173	0.005346737	-0.00969743	-0.0065730987	0.0034296466	-0.008517154	0.0066547273	0.0061547006	-0.009304212	0.0086505795	0.007841418	-0.0017931045	0.0017818403	-0.0056954348	0.0062180865	0.007702006	0.0040462483	-0.0088615045	0.004945648	-0.0030605912	-0.0022071183	0.0061053596	0.001845299	0.0046271216	-0.006278062	0.00523851	-0.0035391164	-0.00038360714	0.006221826	0.004076997	0.0074718143	-0.003917452	0.0035482205	0.007308824	-0.0032864297	0.0057587395	-0.009412689	0.0088426	0.003753363	0.005311135	0.004648409	0.0045669544	-0.0033091903	-0.0062102987	-0.0022825336	0.0013853586	-0.002941835	-0.008484525	-0.006288942	0.00834155	0.009341744	0.0059608663	-0.0041033006	0.00069476845	-0.008576207	0.006657025	0.000467819	0.0073765884	-0.0053730775	-0.0028471767	0.00285897	0.0034598089	-0.006545106	-0.0073662605	0.002031846	-0.00901062	0.005788537	0.005469427	-0.0038179446	-0.005641111	-0.008326602	-0.0018966305
突发	0.0069790934	-0.00020951152	-0.00794701	0.008890595	-0.008551635	0.005559889	0.0064678504	0.0009757793	-0.008692562	0.0061753215	-0.007847871	-0.005017768	0.009624788	-0.008282142	-0.007628553	-0.004900558	0.003463192	0.0019144202	-0.005558517	-0.0032763958	0.008583553	0.009767599	0.009914715	0.0010454941	0.004038	0.0013658536	0.0016727329	0.004838382	0.0022040391	0.0003005445	-0.0031488347	-0.0065247416	0.007989492	-0.005971962	0.002783352	-0.00092541694	-0.0036488725	-0.004941393	0.0032202196	-0.0058576204	-0.007494794	-0.0026441026	0.0046893787	0.006044098	-0.0014566731	0.007298615	-0.0075932704	-0.004732773	-0.007860875	-0.006047109	0.0073008193	-0.009280706	-0.008651956	-0.009814539	0.009202812	-0.0026650822	0.0009973466	-0.0061275125	-0.0025342822	7.256627e-05	-0.002500242	-0.0073716044	-0.0061929417	0.0025351786	-0.009494337	0.0011462688	-0.001988356	0.008278269	-0.0003978026	0.0062138676	-0.007086834	-0.00756771	0.0055462597	0.0009397602	-0.0050903237	-0.0026597893	0.008771152	-0.009177432	-0.0036765123	0.001002481	-0.00021608472	0.009513614	-0.0019383347	-0.00709533	-0.007678739	-0.009900536	-0.007823649	-0.0060328604	-0.0059469976	-0.0014051843	-0.0005411708	-0.0047152913	0.0021409167	0.0038658725	0.009030188	-0.004654753	0.0051285233	0.0072539425	-0.003756869	-0.0074346815
歌曲	-0.0033387006	-0.006891975	0.0064954115	0.009387545	0.008272879	-0.008534172	0.0050477707	0.0050999965	0.0056287623	-0.008324645	1.7518998e-05	-0.006825198	-0.008916365	0.0024941885	0.009930209	0.0064967275	-0.0070674145	0.002336718	-0.0039035357	0.00992626	-0.008801694	0.0097253015	-0.006517699	-0.0070063495	0.0016265237	-0.0006727183	-0.00851412	-0.00061249017	-0.0003583193	-0.0062671616	0.00574685	0.0031744791	0.008400433	0.0073984587	-0.006641384	0.0047862935	0.0056937253	0.00577824	0.005206115	-0.0047820937	0.004316015	0.0013179529	6.9856644e-05	-0.0064561605	0.0015231848	0.005264833	-0.009211073	0.008607114	0.0029928028	-3.9848088e-05	-0.0033638144	0.00036002754	0.006084268	0.0047726883	-0.0059520877	0.007873684	-0.0006383729	-0.008159326	0.008868797	0.0050710593	0.0036271536	0.007909533	-0.007528286	-0.005830854	-0.002005663	-0.004098352	-0.0016020107	-0.0005881453	-0.008385045	0.0019008947	0.0025585734	-0.0008413959	0.004869256	0.0014651024	0.0059875203	-0.0022362708	0.008524367	-0.0015649045	0.0030778253	-0.0037869918	0.0061295773	0.0030772365	0.0005445683	0.008756796	-0.007837457	0.009714823	0.000781306	-0.0023544144	-0.0041274764	-0.009104325	-0.002220707	0.0026890803	0.00657832	0.009070311	-0.008748599	0.009056885	-0.008840022	0.003732773	0.008027507	-0.0025085735
连续	-0.007855523	-0.008335599	0.0011532032	-0.0007618403	-0.009511391	0.0031002855	0.0022554612	0.00445249	0.0044289804	0.003233682	-0.009816536	0.0057342853	0.0042624557	-0.007746452	-0.0021214795	0.0003542018	-0.0006413519	-0.00096674205	-0.005541085	2.2916794e-05	0.0044204867	-0.0006808114	0.00080030324	0.0020935703	-0.0039747334	-0.007867856	0.009168094	-0.009787052	-0.002477169	-0.0012662923	-0.0076708817	0.0017714226	0.007943522	-0.0015163934	0.008105142	0.00029457093	-0.0057722414	-0.0019822335	-0.0007259321	0.0062550926	0.00712075	0.0062032067	-0.0059937323	-0.006978793	0.0060925246	0.0024758757	0.005342622	0.00046465278	0.007866531	-0.008879573	0.009872104	-0.0082385205	-0.0017060137	0.0062819896	-0.009231296	0.004318352	-0.006977253	-0.006843599	0.0023038639	0.0017360222	-0.0027882052	0.0078717135	-0.007017027	0.0004640734	0.008731671	0.002025082	-0.0068524266	0.0035396314	-0.0050300597	0.00058960676	0.0028594316	0.0075861155	0.007382101	-0.0048940196	0.009520155	-0.005486518	0.0076262606	-0.007982628	-0.007821259	-0.0011118746	-0.0081429295	-0.0034676278	-0.0005142939	-3.7884713e-06	-0.009961548	-0.0065069566	-0.0074176504	-0.00038771034	0.0051887	-7.7949764e-05	0.009960201	-0.003886684	0.0080591515	0.0060861516	0.0082620075	0.000106459855	-0.00042989492	0.0018921745	-0.009925608	0.009044812
吴宣仪	-0.0023880566	0.007539097	0.0020417392	0.002899462	-0.0012428021	-0.009893929	0.0013990104	0.002885846	-0.009805211	-0.003901539	-0.0023483122	-0.0050597144	0.0039592646	0.0021051753	0.004335984	-0.0064775874	-0.006002877	0.0047188415	0.0067790532	0.0055270125	0.00479678	-0.0072433436	0.008163027	-0.0069606733	-0.007668171	0.008505701	-0.0024709427	-0.009389091	-0.0030838465	0.005962373	-0.002893331	0.004938302	0.00010116219	0.0040657567	0.0011849535	-0.009323954	-0.003649968	0.008836567	0.0015401721	-0.005890633	0.007014319	0.007456155	0.0072449828	1.4791489e-05	-0.009146137	-0.0034870815	0.005135933	-0.0065033175	0.00974367	-0.009770466	-0.008128902	-0.005314188	0.006018027	-0.007674804	0.008637461	-0.009866875	0.0034941984	0.0032960272	5.440593e-05	0.009543395	0.0051105833	0.0002883041	0.0048185564	0.006408362	0.0030067516	0.009407751	-0.0013388288	-0.008385068	-0.004476042	-0.0014913619	-0.0072681345	-0.0015642322	0.007934634	-0.005024625	0.0051005064	0.0043512867	-0.00069895503	0.0010750556	0.005724819	-0.006641511	0.0038969624	0.008915653	-0.0035137893	-0.007614329	-0.009201701	-0.009006339	0.0038706504	0.005116688	0.0070392215	-0.0014526045	0.0009684706	0.0030519783	-0.009878289	-0.00941344	0.004589536	-0.008399641	-0.0031776738	-0.004310167	0.005914497	-0.0034456884
创科	0.009982215	0.00055624964	-0.0051474776	-0.0036372698	0.001257832	-0.00536841	0.0073942672	0.009023565	0.004292709	-0.0073460448	-0.0059461105	5.0555467e-05	-0.0010186636	-0.0055266414	0.007935796	0.006237173	-0.00418383	0.0023823476	0.0051312707	0.0024099147	0.0085688345	-0.0012911868	-0.0065269945	-0.00083419203	-0.008322713	0.009843702	-0.008616771	-0.0015034461	-0.002849666	0.0031493437	0.004970863	-0.008236573	-0.004408245	0.000491668	0.0039994265	0.0051164306	-0.0013848603	-0.000623014	-0.007825941	0.0045463373	-0.007649441	0.0032852124	-0.0034279441	-0.0078022038	0.0068838205	-0.0004573655	-0.009545268	-0.009375973	0.0005911231	-0.008181143	0.0037383246	0.003464539	0.0033530975	-0.0056026364	0.007983505	-0.008987202	0.0074568833	-0.0006320059	-0.001473198	0.003964249	-0.0024885095	-0.004396192	-0.0024170566	-0.00618799	-0.0003520119	-0.0053840484	0.004604342	-0.009538221	-0.0043516336	-0.009165211	-0.009617129	-0.0007513642	-0.008083727	-0.005692041	0.002775898	-0.0014404022	0.003104688	0.008265149	-0.00963028	0.0060847662	-0.007946159	0.0065345466	0.007468425	0.008580471	-0.00795149	0.0033395386	-0.007842227	-0.00124591	-0.005220268	-0.008533285	0.004934062	0.0044341264	-0.0040578507	-0.00777642	0.0035564327	-0.0039322674	-0.008868993	-0.004387828	-0.0021720326	0.008757072
有限公司	-0.0064564645	0.0073323892	0.0061229146	-0.004908136	-0.001758852	-0.0025048994	0.0031226445	-0.00045303107	-0.0027636087	-0.009045644	0.0064344313	-0.009615391	-0.008650444	0.0013819778	0.0029734327	4.7421454e-06	0.00037010072	0.0025892723	0.0018025708	0.007568313	-0.003446393	-0.0072333897	-0.00788418	0.007919614	0.0019462728	-0.005807856	0.006391193	0.008453579	0.007946606	-0.0068279803	-0.0051414394	-0.0020103382	-0.0066176713	0.004728824	0.005664438	-0.005995921	0.007199256	-0.007656555	0.0062029026	-0.004625329	0.0019614566	-0.0032713367	0.0033896612	0.0077184713	-0.0013945032	-0.004985187	-0.00856165	0.0036374521	0.004231018	0.0066972245	-0.004289763	-0.009732989	0.006821517	-0.0045247437	0.0044197715	0.008054533	-0.0039428137	0.0016341746	-0.0035891545	-0.0066137468	-0.005684339	-0.00013659001	-0.0075132754	-0.0019958054	-0.002487917	0.0067084394	0.0013637447	0.0058521964	0.0038193201	-0.0035164417	-0.005091473	0.009661293	0.007070396	-0.009044231	0.0052457834	0.008193034	0.0091923	-0.00805466	-0.0020131744	0.0010854984	0.0029083753	-0.001621958	-0.004704926	0.0064684176	0.006932578	-0.00038987756	-0.005843141	-0.0043717623	-0.0051488746	0.0042562988	0.0005137396	-0.002359662	-0.009084906	-0.0014964581	0.006431346	0.006324997	0.0042235423	-0.0028758978	0.00905161	0.00060097576
微梦	0.0011347234	0.006174861	-0.006593491	0.0065341983	0.009794316	0.0036727618	0.0034324396	0.004196546	-0.0019464791	-0.008096277	0.0014800942	0.0009046066	-0.006797297	0.0019593919	0.005443902	-0.007177912	0.0025119793	0.0077667725	-0.008621219	0.0035135662	-0.008564608	-0.007937057	0.007091025	-0.007565397	-0.0013685488	-0.007928683	-0.0078653935	-0.007103605	0.00040596127	0.001794883	-0.007906519	-0.008049076	-0.003180132	-0.001824404	-0.0061704637	-0.004226774	0.0036070598	0.0030711652	0.0065946756	0.0042466833	-0.00088664773	0.0027672017	0.009049989	0.001908176	0.0018196488	0.0011240005	-0.009286896	0.005351924	0.005043949	2.553463e-05	0.009212247	-0.0057180882	0.0032491565	-0.007811786	-0.0089405645	0.0020009638	0.004744922	0.0061003957	-0.008687585	0.0043530716	0.002398505	0.0041559553	-0.0006745219	0.005543709	0.007291638	-0.008386932	-0.009932266	0.0070149074	-0.00095197203	-0.009374607	-0.0040858854	0.0011912441	0.008426614	-0.0016904592	-0.0010216295	-0.0073646666	-0.007652612	0.0014624643	-0.00047345756	-0.0077002333	0.0008799255	-0.008988475	-0.002477033	0.0042172647	0.0011170149	0.007830691	0.006585375	-0.0011890733	0.0049564564	0.006129242	0.008731773	0.009078525	0.0049281693	0.0046114624	0.007185029	-0.0015663934	-0.005649698	0.008868068	0.0012105549	-0.0050547267
信息	-0.00086848857	-0.0052288244	0.009117343	0.0033977258	0.004281497	0.0065047275	0.008174172	-0.004780909	-0.0063445233	-0.0037264358	-0.0037126923	-0.009444293	-0.0006111741	-0.0081025325	0.009770614	-0.0034054113	-0.006315577	-0.008104855	-0.0035619892	-0.009554432	0.0007834876	0.005411407	-0.0028748845	0.007667178	-0.0018744505	-0.0072693443	-0.0031246054	-0.0031405068	-0.007096013	-0.009682437	-0.0040667616	-0.0015885532	0.005004165	-0.0076110484	-0.0049743224	0.00136173	-0.0016755282	0.0035477101	-0.0018744778	0.0043231724	0.007991717	-0.007913865	0.0037664175	0.005983944	-0.0005768907	0.0067666457	-0.0054164054	-0.004576148	-0.007847841	0.009470951	-0.009406834	-0.0032497025	-0.00043368936	-0.0048489464	0.009472107	-0.0068334625	-0.008018992	0.009244735	-0.00829936	0.009690137	-0.004097631	0.005667235	-0.0004140079	-0.003996818	-0.0075050234	-0.006273663	0.0068436717	0.0063219117	0.00016444206	0.0063917325	0.0038549781	0.0038341368	0.0026777983	-0.009717427	0.009260885	-0.008204595	-0.0030065523	0.0014260912	0.0052478802	-0.009210094	0.0016935599	0.0063584996	-0.008757707	0.00955528	-0.0052177883	0.009551573	-0.006526574	0.0065929224	0.009362592	-0.009227449	0.00029052852	-0.007731168	0.008128647	0.00957799	-0.0060524107	0.00084287405	-0.002240573	-0.007756331	0.0008195054	-0.009904027
同步	0.0026139712	-0.00769466	0.005689968	0.0075719478	-0.0025542832	-0.0040132226	-0.009609619	0.0049185813	0.002911098	0.008747326	0.0033002985	-0.0029020058	0.0035580539	0.008627129	0.00923288	0.0076445006	-0.008554098	-0.0075676455	0.0072610746	-0.0074433624	0.0032508099	0.008024577	-0.0032070149	0.006759243	-0.008154703	0.0064884494	0.005591905	0.0033371078	-0.008124964	0.00916076	0.008228377	-0.001564225	0.0041074227	0.0063744173	-0.0017397249	0.0054875016	-0.004034226	-0.0012750161	-0.0012077689	-0.0041616056	-0.00070821407	-0.0077020586	0.003643316	0.009058002	0.004781754	0.0063837375	-0.00473606	0.004862039	-0.0066827703	-0.004970487	0.009870907	0.0064021875	-0.0049880375	-0.0060753333	0.0072275903	0.0027058495	0.0065872287	-0.0067573464	-0.0009711766	-0.00094586256	-0.00021973252	0.0022213804	-0.006750994	0.004383075	-0.002746538	0.00834864	-0.0010315753	0.009156678	-0.0008393252	0.0052109146	-0.0075949538	-0.009100653	-0.0003423369	-0.0022590114	0.009968901	0.00452713	-0.0055685304	0.007365103	0.00059032557	-0.009552492	0.0057171895	-0.0020101452	-0.00941968	0.008705731	0.00724838	0.008552344	0.0003629756	0.0076829004	0.00518623	-0.0069373525	0.0092856325	-0.0035596562	-0.009743405	0.008559385	-0.0053077745	0.0083971545	-0.007853358	0.009274013	-0.005914916	0.003998809
活动	0.00978409	0.004202155	-0.002127043	-0.0049552466	-0.009720695	0.004206293	0.0074358927	-0.004736222	0.005920967	0.006840651	-0.009016923	0.0020980537	-0.006839578	-0.0043298863	0.000856843	-0.007028967	-0.0041387584	-0.0075126137	-0.00702773	-0.006938139	0.00991433	0.008322913	-0.00018445491	-0.0026248468	0.0062486185	0.00133919	-0.008993888	-0.0070596277	0.0010280252	0.007934226	0.0031984712	0.009840041	0.006552087	0.0002949798	0.008651973	0.0089997705	0.008059152	0.009402272	-0.009382622	0.0035131024	-0.007812917	-0.0071413503	-0.008426254	0.0032024991	-1.05130675e-05	-0.0063514053	0.0055457377	0.007904219	0.0042972374	0.007832834	-0.0042779446	-0.006389071	0.003979193	-0.0029255378	-0.0071752034	0.003670503	-0.0033224297	-0.0051983013	0.0026289714	0.0068538594	0.006401373	0.00014903903	0.008650059	0.0029431654	0.006568195	-0.00089957	0.0021090256	0.006163751	-0.009793651	0.005828723	0.0012870133	0.006084757	-0.0014455986	-0.0026966953	-0.0055811987	-0.0028463923	-0.0025709784	-0.005147079	0.00097062945	0.007990416	0.0051383795	-0.0076500797	-0.0074191405	-0.0028935408	0.0039071646	-0.009318068	0.0061217356	0.0031166517	-0.0028216827	0.00919409	0.008061082	0.0007147682	0.004828162	-0.00930287	-0.008788269	-0.002946515	0.009276314	0.003234347	0.0056125904	-0.00677065
发布	0.004244654	0.000394243	-0.00090871094	-0.0032468843	0.0049649705	-0.009100075	0.005117242	0.005664798	-0.0024323857	-0.0042004953	-0.0073921587	-0.0063741268	-0.005107111	0.0031485604	-0.0047958507	-0.0011987113	-0.0089231245	-0.0035099043	-0.0007830262	-0.007943585	0.0032513393	0.009753894	0.004390236	0.0018677425	-0.004867737	-0.0011340642	0.0022439922	0.0017373741	0.008812662	-0.0009337044	0.0069941627	0.0057853553	0.0030407237	0.0073225284	-0.004943963	-0.0039574946	0.006975311	0.008612566	0.0031548513	-0.004095361	0.0076402687	0.0027224899	-0.00022880554	0.008863419	0.004306618	0.0039514434	-9.162426e-06	-0.0089243995	-0.0031200552	0.0024350178	-0.0056078015	0.0071219015	0.0074460246	-0.008948368	-0.005382278	-0.0059847534	-0.0006573653	-0.0017979312	-0.002043196	-0.002209046	0.0035696542	0.009614757	-0.0045907237	-0.008283211	0.003741573	-0.00646013	0.0066858972	0.0026641977	-0.007862444	-0.0077554975	-0.009249691	0.0023520815	0.0027388847	0.002620188	0.00017423868	0.0010435843	0.003072989	-0.0015613401	-0.008032918	-0.000622654	0.0037065744	-0.0025938987	-0.0021317697	-0.0022502996	0.007268865	-0.003040421	0.009443572	-0.0038816214	-0.009971809	-0.006550921	-0.0043728175	0.0012447893	0.005123422	0.002129345	0.0090438975	0.00090072275	0.00563388	0.00016108275	-0.002117108	0.0062181307
车赶	0.0020193087	0.008259695	-0.0082975235	-0.008752119	-0.0005409515	-0.001892829	-0.002347741	-0.0005953157	-0.0050706733	-0.00802021	0.008254425	-0.0033411551	-0.002843275	-0.0016452015	-0.0012307597	-0.009189159	-0.0017992663	-0.001348027	0.008648293	-0.007960443	-0.0047497023	-0.0018860555	0.0028854883	-0.006020081	-0.0055474555	-0.0079651475	0.005532079	-0.008717095	-0.003248185	0.00029382945	0.0014490497	-0.009941127	0.008659907	-0.002055372	0.00035226703	-0.008793196	-0.008167935	0.0037706005	0.00401258	0.0029851748	0.005845773	-0.0069301603	-0.001245743	-0.002724408	-0.0014065563	0.0044774804	0.0013715756	-0.007439362	0.0032385266	0.0062564625	-0.0061026667	0.0032297052	-0.004312105	0.00882676	0.0041302075	0.0020369852	-0.0010193908	-0.009108195	0.008654691	-0.0018175113	0.007374895	0.003772235	-0.00825876	-0.00061668514	0.0027457261	-0.0025650286	0.009732382	-0.0049881507	-0.0071646417	0.0037977588	-0.0035697746	-0.0068882382	0.002034911	0.0052708425	-0.0054975892	-0.0043804515	-0.00717654	0.0015494394	-0.0047564926	0.008435508	0.0007221794	0.0018632972	-0.0033373034	0.0073791887	-0.00066037657	-0.008212486	-0.007342117	0.0002062416	0.0077362643	0.0030871534	-0.005322231	-0.0067531443	-0.009854483	0.003922988	-0.009518245	0.0031844045	0.0016626811	-0.00082174776	-0.009953121	0.00588423
加载	-8.945703e-05	-0.0099360095	-0.0075335596	0.00856881	0.0018905902	-0.008180626	-0.00081863644	0.0054051806	-0.009319038	-0.006874968	-0.0010237086	-0.009764314	0.0004803121	0.0019457818	0.008540479	0.0009839701	0.0013027501	0.00487947	-0.0042912625	0.0072308113	0.00016042351	-0.0006788945	-0.009697697	0.00050635816	0.0067891036	0.0017610216	-0.008090634	-0.0033290554	-0.0060376977	0.0060200524	-0.0064675785	0.0052568982	-0.0052577676	-0.006824509	-0.007585852	0.003811214	-0.008800774	-0.0057102228	-0.0070607364	-0.004317038	-0.004034617	0.0014855397	0.0064850794	-0.0011967993	-0.005487169	0.0015578998	0.0056361924	-0.0052720355	-0.0053396034	0.005169892	0.006265855	-0.007770121	0.008212791	-0.009845584	-0.0074171685	-0.0058797277	0.0018146503	5.6022407e-05	0.0034673393	0.0070137773	0.0047925375	-0.0032031513	-0.0064344476	-0.0082501	-0.00048110963	0.009731115	-0.0076742456	0.0036490583	0.004385115	-0.004338492	-0.0069657816	-0.0054432796	-0.005037911	-0.006999307	0.0059357155	-0.0077688755	-0.0029340922	0.00437942	0.00017988324	-0.0076858387	-0.0046878015	0.0035920918	0.0025422156	-0.0019574391	-0.00072372676	0.0025495624	0.0014234304	-0.0026439119	0.0053413236	-0.0076592527	0.006366998	-0.009992464	-0.0022539436	0.0066825924	-0.00360309	0.006534375	0.0054321764	-0.0073966896	-0.00024279833	-0.0044952272
建立	-0.008060759	-0.00089183927	0.0063890363	0.00873659	-0.005042392	-0.0026579679	-0.0060377787	0.0011617958	0.0026642715	-0.009837792	0.002411685	-0.008813521	0.0003986788	0.0047600614	-0.0052560843	0.00025791884	-0.0021824145	-0.008687263	-0.002409929	0.004456809	-0.008575824	-0.005937272	-0.00054614665	0.008037414	0.001406138	0.009760814	-0.0076703965	0.008991897	-0.0047288905	-0.0063556097	-0.007836437	0.0018455946	-0.0027555441	0.0075524626	-0.0005141616	0.0025094736	0.005960394	-0.0086482195	-0.0020586872	-0.00478127	-0.008669741	0.0034173024	0.0024138128	-0.002402191	-0.0019146538	-0.006730969	-0.0032605957	0.0013105846	0.007738345	0.0070671346	-0.0035937524	0.0036083437	-0.002579385	-0.004719883	-0.0036249019	-0.006146641	0.0035013603	-0.0077899755	-0.007508168	-0.0045036604	0.007398263	0.0018272507	0.0054589654	0.008216331	-0.006234714	-0.004626666	0.0076803686	0.004940561	0.004661748	0.008992459	0.00881204	-0.0026761247	0.001039406	0.0054817703	0.008891535	0.009847198	-0.008265051	-0.005125456	0.0049909055	0.00095594884	0.00016318679	0.007504299	0.00640329	-0.007237103	-0.0025938833	-0.008483734	0.007044022	0.0027665328	-0.0022286116	0.0018797826	0.007663952	0.008131565	0.006174213	0.0031653107	0.0015491641	0.008139429	0.0013163317	0.00044244886	-0.00955314	0.0025240958
钟南山	-0.0084584085	0.0064659393	-0.0057889996	-0.001749748	0.00097571133	-0.0018810487	-0.0091232415	0.0039836857	-0.006571071	-0.008791465	0.0039116726	-0.0007597363	0.006510582	-0.007014059	0.0007800031	-0.0006863701	0.0057431636	-0.009730659	0.005930355	-0.0089796325	-0.0077836933	0.0007277668	-0.0026636957	-0.0038921558	-0.0053031812	0.004110781	-0.009324772	0.0011857295	0.004207884	-0.0002808547	-0.00049731135	0.0071674027	-0.009568313	-0.009012912	0.0044411705	0.008716597	-0.0077953767	-0.008309468	-0.0006421447	-0.009035908	0.0021205782	0.009235348	-0.006115714	-0.006756551	0.008912509	-0.0007598078	-0.0037440455	-0.002710942	-0.008751236	-0.0046275486	-0.004152931	0.0002486384	0.00069055316	0.0076253996	0.006827029	-0.001513685	-0.0099773165	0.0025944256	-0.0061124684	0.009107871	0.003804723	-0.0010059155	0.006605178	-0.0034930361	-0.0036861014	-0.00033020615	0.008414149	0.005936984	0.0015718043	0.0037699973	-0.0029827296	0.009259501	-0.007131692	-0.0032376682	-0.0053001177	0.008723732	-0.0031250536	-0.0023866785	0.007148211	-0.009705806	-0.0029008472	0.0028879035	-0.0062631345	0.008761252	0.0011675155	-0.005229591	0.0049298774	0.007981528	0.00092825294	0.0068175136	-0.006826265	-0.003618877	0.009936986	0.0056760465	0.0015955901	-0.0034937453	0.0044165375	0.002532475	0.00835822	-1.5807152e-06
起新冠	0.008596921	-0.0058590295	-0.0076059494	-0.0014025867	0.0029744648	-0.0019831157	0.005888177	-0.008412279	-0.009006096	0.0075791953	0.0063356413	-0.0040856195	-0.004020293	-0.0035549463	-5.1817893e-05	0.009075048	0.0009518862	-0.0020490445	-0.0034158814	-0.0020868706	-0.009195358	0.006827521	-0.009032836	-0.0030905807	-0.007119527	0.009061229	0.0057918443	-0.00047887804	0.0039187074	-0.002432487	0.009809026	-0.0036267508	0.004859501	-0.003794651	0.009550986	0.009497326	0.0062314663	-0.0002481103	-0.0016862452	-0.008656494	0.009334657	-0.0084423125	-0.0065561975	0.005581009	-0.0022827517	0.007975456	-0.00786721	0.009196544	0.0022511708	-0.008556124	0.0039443877	-0.0049556256	0.0063843774	0.006586746	-0.008761513	0.006463281	0.005260843	0.006483097	-0.0070551382	-0.0065576625	-0.008861841	0.005263078	-0.004018841	0.004799904	0.0047952402	0.008083211	0.0022457242	-0.001083566	0.0014625847	0.0029795598	-0.008770326	-0.0059730494	-0.00094888924	0.004887512	-0.00016151786	-0.009665208	-0.00062947033	0.007146536	0.006333921	0.003468175	-0.0045987964	-0.0037207687	-0.0020783471	-0.0060026203	-0.008597225	-0.0005620241	0.0018025386	0.0048298896	0.003589878	0.008554875	-0.006766857	0.0092769675	-0.003341483	0.00081103086	-0.004261707	-0.0040468206	-0.001487422	-0.0075095464	0.008968366	0.0045595383
照片	-0.0022606193	0.0019148445	0.007814169	-0.005615084	0.0038148523	0.0007054198	0.0028984523	-0.0021371387	-0.009874156	0.005882429	-0.0014221299	-0.008317623	0.00071287394	-0.0061715986	0.007677542	-0.006397005	-0.0016471314	-0.00039515496	-0.004289585	-0.0034222817	0.007344972	0.0018516982	-0.009377915	-0.00028383732	-0.009531599	-0.0031610047	0.00495891	0.0037001027	-0.005740304	0.0014583885	0.0058098854	-0.0074972603	-0.003380425	-0.0024654139	-0.008895082	0.0021022689	0.0065082144	0.0024436617	0.002375828	-0.0008080888	-0.00080893276	-0.006269524	-0.00049342634	0.006592853	0.0029706336	0.00054553984	0.007830631	0.0027989424	-0.0074221613	0.00730734	0.009552733	-0.009081603	0.00722636	-0.007593031	-0.00035892962	0.0046106684	-0.0057432842	-0.007954924	-0.007287463	-0.009894049	-0.006667359	0.009553361	0.0029253936	-0.0090641	0.0085058715	0.007213905	0.007860772	0.009610023	-0.008671055	-0.002195618	0.0020967817	0.0024170042	0.0048337136	-0.0077282237	0.004815222	0.00993514	-0.008963814	0.0078939535	0.0032084202	-0.0041587544	-0.0015372873	-0.008512761	-0.0074839187	0.0055174697	-0.0031306208	0.009990313	-0.008019697	-0.007048143	0.0061439537	0.007881142	0.0036862993	0.0072381427	0.006488321	-0.005777092	0.008703454	-0.00633605	-0.0028784669	-0.0059831534	0.0060893474	-0.0043855812
素养	0.00307577	-0.0015842546	-0.001196326	-0.0058477926	-0.0057676993	-0.0035825646	0.00031732558	0.0014689433	-0.0033027946	0.001939708	-0.0056695305	0.00998629	-0.00082016585	-0.0069489707	-0.0018582523	0.007936342	-0.001100502	-0.0051538683	-0.008046085	-0.0058696973	-0.003196448	0.007720239	-0.0072237337	0.0014400983	-7.626414e-05	0.0039387345	-0.0079444675	0.007950479	-0.0027889276	0.0052995994	-0.009506632	0.0050889254	-0.008248977	-0.003251778	-0.0011872781	-0.003642206	-0.00073236943	2.3472308e-05	0.0045096828	-0.0022412944	-0.0040084813	-0.006172981	0.008324329	0.0046128607	0.009101685	0.0054835365	-0.0046111774	0.008278715	-0.006958591	0.0030443561	-0.0033556437	0.00026778935	0.0037600899	-0.0028218043	-0.004420328	-0.0019492912	0.0005203712	0.00645506	-0.0058552157	0.0046665277	-0.00370911	-0.007946053	-0.005604844	0.0018558884	0.00878845	0.007873713	0.009176957	0.006889963	-0.0029662393	-0.0024210883	0.008815731	0.0064811576	0.006012387	0.0068799295	0.0016215027	0.0023945929	-0.008207313	0.00753669	0.009444269	-0.0070817173	0.0011635136	0.008741148	0.0036550332	0.0069505847	0.007629596	-0.001918453	0.008863422	0.005986605	-0.0018971383	6.14655e-05	0.009707736	0.0058213235	-0.006685798	-0.0034905458	-0.0034888983	0.0031212235	0.0011050344	-0.008603022	0.0021710205	0.009618772
结果	0.002355808	0.004284242	0.0019622506	0.008119519	0.008877659	0.0031601144	-0.0024387622	0.0036050272	-0.0077146995	0.008015458	-0.004008132	0.009921636	-0.009588582	-0.002559849	0.008886406	-0.004077053	-0.0019587122	0.0050348677	0.009285185	-0.00036540866	-0.006798946	0.009990067	-0.009525839	0.0012456155	0.0055658794	-0.007831783	-0.005631535	-0.009120781	-7.175803e-05	0.005002359	-0.008225549	-0.003081405	0.008390056	-0.004461409	0.0031752693	0.0035147415	-0.0035766019	-0.0051736343	0.008324935	-0.002518822	0.008960965	-0.0024186682	0.0030502535	0.005595678	0.0005636394	0.004395002	-0.005963398	0.008413565	-0.0016444742	-0.0044152453	0.005110202	0.009922147	-0.00566102	0.0008399558	0.0043369355	-0.0027499462	0.0006399131	0.008822366	0.00772181	-0.006456815	-0.0032067418	0.009218151	-0.00031924367	-0.009561476	-0.00071720243	-0.0068076956	0.0009260297	0.00082047225	-0.004397594	-0.0045887195	0.008796283	0.0045839595	0.0025760757	0.0018444466	0.0082293665	-0.004993936	0.006103922	-0.0009861029	-0.0076568853	-0.009695221	-0.0016761743	0.008117284	0.0022067286	-0.008978457	0.0012235641	-0.0036245072	-0.004058254	0.008129869	0.005822582	0.00036031962	0.0024504387	0.0009006989	-0.009922687	0.0029905569	0.007183068	0.0039889193	0.0024717283	-0.0035476815	0.0023403012	-0.00763262
右侧	0.004213253	0.0023962092	-0.00040929436	-0.0005981219	0.0026334084	0.0022231054	0.0014790857	0.009130979	0.0035320378	0.0013929605	-0.0029337765	-0.0060691857	-0.009312978	-0.003260125	0.0043493845	0.0075754058	0.0006356168	-0.004780427	0.003599416	-0.0039000798	-0.00075940014	0.008863541	0.0081677055	-0.00041843296	-0.005910628	0.0036931909	0.009812188	0.008669337	-0.0019080364	0.007148074	0.009270792	-0.009558498	0.008885549	2.2158623e-05	-0.0051955595	0.0036797202	0.008964584	-0.0072416365	0.006871016	-0.0064289533	-0.007785163	0.0055052876	-0.004572078	0.0047625923	0.007368748	0.0096525075	0.00571123	-0.0088655045	0.003243127	-0.008990168	-0.00036827088	0.009781914	-0.005113987	0.0040978957	-0.0057326173	-0.008047242	0.008015274	0.0032451379	0.0073767244	0.0029330992	0.0011639607	0.00372254	-0.0084222965	0.0065917624	-0.0044854726	0.0046109925	-0.005462816	0.00104159	0.004018984	-0.0024803805	-0.0075305165	-0.0060364185	-0.009940198	0.009684123	-0.0043904986	-0.0010553587	-0.009022118	-0.004574661	-0.004887772	0.0030174053	0.0056555998	0.0034995938	0.0098568	0.0018948424	0.009875978	0.0075551225	0.002763318	0.0021439837	-0.0075138807	-0.0023621952	0.0056402804	-0.008137771	0.0022612226	-0.0075862575	0.00964866	-0.00012429596	0.0009148443	-0.00477816	0.006118312	-0.007126498
省外	-0.007410362	0.0066182576	-0.0033724105	-0.00091466424	0.005359088	0.0045699333	0.0062081125	0.007027713	0.005616398	-0.00891883	0.005144527	0.009125321	-0.0040063607	0.0010816014	-0.0032792091	-0.0034029423	0.008693296	-0.00027982713	0.0034074627	-0.0055328486	0.0057739685	-0.0033548998	-0.0049688267	0.002191869	0.0097215315	-0.006131165	0.0035739136	-0.0009928012	-0.0071910145	-0.0043305624	-0.008219322	0.005589943	-0.0027526962	-0.0051993635	0.0009980166	0.00458894	0.009498108	-0.009735213	-0.0002757585	-0.001229682	-0.0027000736	-0.00053002476	0.008129929	-0.0018766213	0.009334334	0.0003780532	-0.0010646307	0.0069046007	0.006942637	0.00045891522	-0.00030289293	0.0063429163	-0.0038443613	0.0045933365	-8.502126e-05	-0.0060780393	0.006443784	-0.0040332736	0.0022166455	-0.00684589	0.0026867497	0.00557614	0.0051115416	-0.008073871	-0.005907736	0.007128726	0.0031156028	0.0010988164	-0.0061874557	-0.0013832616	-0.009224623	0.0012573279	-0.004568696	0.0007552326	0.004485375	0.0023915924	-0.0071189846	0.0008507061	-0.006719929	-0.0038795162	0.0018995845	0.0079723075	-0.0065113916	0.002336303	0.008144179	0.009908818	0.006166598	-0.007388672	0.0038613058	0.0088277925	0.00414773	0.0025157356	-0.0015901172	0.0035783374	0.004153396	0.008824278	-0.0038112819	-0.008750725	0.0065029035	-0.006219412
高校	-0.0006043756	0.0014134586	-0.0011889315	-0.0040426757	0.0008613324	-0.009671203	0.0013963389	-0.004175024	-0.0057943095	0.003812449	0.0014539015	0.0036494946	0.0008977234	-0.009513054	0.009981009	-0.0035324562	-0.002192918	0.0071417917	8.05819e-05	0.0030549478	0.0022580207	0.0023836088	0.006762279	0.009475465	-0.0005591953	-0.003426466	0.0045567765	-0.008335233	0.008468733	0.0024005508	0.005999397	0.00280267	-0.0013284922	0.0009618175	-0.004795594	0.009088031	0.0050321245	0.00360973	-0.0050093355	-0.008643961	0.007935111	0.0029527927	-0.0042490065	-0.0086702565	-0.0039636875	0.0014086425	-0.009189772	5.3317548e-05	0.002800417	-0.009942255	-0.00014772058	-0.0060696495	-0.003607632	-0.0016291213	-0.00997681	-0.0036126291	-0.0070231464	-0.007341566	0.0015920735	0.0023366762	0.009287697	0.008864773	-0.0064154495	-0.009217914	0.007890588	0.0054128408	0.0069307135	-0.002939887	-0.0052291644	-0.004568062	-0.008333987	0.005876256	-0.0034557318	0.008633831	-0.005684265	0.009632048	-0.004502096	0.008662969	-0.0054094065	-0.007508508	0.007661704	-0.009774122	-0.008781557	0.004951205	-0.009752201	0.0052811373	0.003652698	-0.007019979	0.0031476556	0.0014540291	0.00864217	0.002881862	-0.0051225997	-0.0023510528	0.0068500675	-0.006618453	0.009294922	-0.0032020009	-0.004648787	-0.0043676724
家长	0.0030829478	-0.009846418	0.0032218862	-0.004485756	0.009667887	-0.005027282	-0.008013176	0.0035127627	0.008966634	0.0027474498	-0.0022681498	0.0035124957	-0.008921006	-0.0041403747	-0.004387108	0.0018914747	-0.006308098	-0.00759122	-0.006530813	0.005290655	0.002748052	0.008798855	0.0023208964	0.0053017186	0.004337355	0.0046274303	-0.0049567996	0.0014354181	0.00029520036	0.0052507604	-0.006605606	-0.00071721314	0.00401759	-0.004848498	-0.008508453	0.0055731167	-0.00085729477	0.00034011842	-0.006073799	0.008503241	0.0009025466	0.0017341411	-0.00039458275	0.0006798899	0.0057906066	-0.00922392	0.0023491157	-0.00557719	0.009447814	0.0043732272	-0.0055047357	-0.0012223804	-0.005543177	0.008514112	0.0090870075	0.0023037363	0.009645547	-0.004721686	0.0028122866	-0.0050981306	-0.008773463	-0.0041693784	-0.0013827443	-0.0056579616	-0.0045454944	0.00063224795	-0.00012678624	-0.008307865	0.0069259596	0.0015681827	-0.009503091	-0.0014206374	-0.0075996993	0.0075766863	-0.0010469413	0.007814936	0.0050266148	-0.0040569534	-0.009068693	-0.0061839866	0.008882002	-0.0015603352	-0.00030631066	0.0001265633	-0.008243922	0.0042195655	-0.008206623	0.0094145015	-0.008122336	0.007899611	-0.0019803727	-0.0020620048	-0.0022875643	0.0009816075	0.0024560667	0.0016227924	-0.00058634876	0.007582151	-0.006428238	-0.007888825
增加	-0.0071909986	0.006314621	-0.0019803024	-0.004748359	0.004949504	-0.007849999	0.0029036808	0.009603163	0.0069305827	-0.0030540335	0.0024092258	0.004956913	0.009600059	-0.0027315712	0.0013284934	-0.0041864477	-0.0031668781	0.0008664203	0.0021986747	-0.005341066	0.0042374264	-0.005111518	-0.0045954217	-0.008982759	0.0076544737	0.004292271	-0.0021957958	0.008427113	0.0019700122	-0.009901218	-0.007759918	-0.004233135	-0.007285063	0.0073961616	0.0050639664	0.002019222	-0.00064344646	-0.007428553	0.0061254823	-0.005192094	-0.0026895166	-0.005851048	-0.002176919	-0.009323048	0.0032816518	-0.0074280836	0.0067563583	-0.0074581956	-0.005887444	7.5951815e-05	-0.007956075	0.005364945	-0.0042332504	0.0003821373	0.007809811	0.0031247914	-0.0001888144	0.007674271	-0.00014562011	0.0056164907	0.0059863795	-0.008004814	0.0019234169	-0.009462962	-0.0013966584	0.008596992	-0.002464912	-0.004784422	0.0027934432	0.007264961	0.006577283	-0.0065101124	0.007027409	0.0075866044	-0.0053651156	-0.0011936342	-0.00059459923	-0.009421749	-0.0023824943	0.009780634	-0.002603568	-0.0076625706	-0.0042716884	-0.0095271645	0.0020009733	0.006017247	0.0007397759	-0.0034776689	0.009474026	-0.009366143	-0.004560424	-0.009757229	0.009588747	-0.0018582094	-0.0053436253	-0.007892484	0.008207663	-0.0029566132	-0.0058085406	0.0037300384
